<?xml version="1.0"?>
<opencv_storage>
<cascade>
  <stageType>BOOST</stageType>
  <featureType>HAAR</featureType>
  <height>32</height>
  <width>16</width>
  <stageParams>
    <boostType>GAB</boostType>
    <minHitRate>9.9500000476837158e-01</minHitRate>
    <maxFalseAlarm>5.0000000000000000e-01</maxFalseAlarm>
    <weightTrimRate>9.4999999999999996e-01</weightTrimRate>
    <maxDepth>1</maxDepth>
    <maxWeakCount>100</maxWeakCount></stageParams>
  <featureParams>
    <maxCatCount>0</maxCatCount>
    <featSize>1</featSize>
    <mode>BASIC</mode></featureParams>
  <stageNum>30</stageNum>
  <stages>
    <!-- stage 0 -->
    <_>
      <maxWeakCount>2</maxWeakCount>
      <stageThreshold>3.8002889603376389e-02</stageThreshold>
      <weakClassifiers>
        <_>
          <internalNodes>
            0 -1 32 2.8692555427551270e-01</internalNodes>
          <leafValues>
            7.8531074523925781e-01 -9.3650794029235840e-01</leafValues></_>
        <_>
          <internalNodes>
            0 -1 11 -6.6991612315177917e-02</internalNodes>
          <leafValues>
            9.7451084852218628e-01 -5.9574204683303833e-01</leafValues></_></weakClassifiers></_>
    <!-- stage 1 -->
    <_>
      <maxWeakCount>4</maxWeakCount>
      <stageThreshold>9.3438886106014252e-03</stageThreshold>
      <weakClassifiers>
        <_>
          <internalNodes>
            0 -1 19 -1.0875870287418365e-01</internalNodes>
          <leafValues>
            1. -3.6752137541770935e-01</leafValues></_>
        <_>
          <internalNodes>
            0 -1 95 1.1032953858375549e-02</internalNodes>
          <leafValues>
            6.7081594467163086e-01 -6.7321437597274780e-01</leafValues></_>
        <_>
          <internalNodes>
            0 -1 88 9.0248312335461378e-04</internalNodes>
          <leafValues>
            -6.1798650026321411e-01 5.6847816705703735e-01</leafValues></_>
        <_>
          <internalNodes>
            0 -1 196 4.2664282955229282e-04</internalNodes>
          <leafValues>
            4.8160141706466675e-01 -6.7547929286956787e-01</leafValues></_></weakClassifiers></_>
    <!-- stage 2 -->
    <_>
      <maxWeakCount>4</maxWeakCount>
      <stageThreshold>2.3754097521305084e-01</stageThreshold>
      <weakClassifiers>
        <_>
          <internalNodes>
            0 -1 144 5.0907265394926071e-02</internalNodes>
          <leafValues>
            -3.5714286565780640e-01 9.3750000000000000e-01</leafValues></_>
        <_>
          <internalNodes>
            0 -1 38 -2.0848348736763000e-02</internalNodes>
          <leafValues>
            8.4086388349533081e-01 -2.4211770296096802e-01</leafValues></_>
        <_>
          <internalNodes>
            0 -1 125 -6.8809539079666138e-03</internalNodes>
          <leafValues>
            -8.8587862253189087e-01 4.3773680925369263e-01</leafValues></_>
        <_>
          <internalNodes>
            0 -1 139 -1.3703788630664349e-02</internalNodes>
          <leafValues>
            5.1742726564407349e-01 -6.5494430065155029e-01</leafValues></_></weakClassifiers></_>
    <!-- stage 3 -->
    <_>
      <maxWeakCount>5</maxWeakCount>
      <stageThreshold>-1.0739265382289886e-01</stageThreshold>
      <weakClassifiers>
        <_>
          <internalNodes>
            0 -1 7 -8.3877027034759521e-02</internalNodes>
          <leafValues>
            9.4957983493804932e-01 -2.7272728085517883e-01</leafValues></_>
        <_>
          <internalNodes>
            0 -1 4 -1.1041833087801933e-02</internalNodes>
          <leafValues>
            -4.9395397305488586e-01 5.4559123516082764e-01</leafValues></_>
        <_>
          <internalNodes>
            0 -1 14 -6.1991237103939056e-02</internalNodes>
          <leafValues>
            7.8870511054992676e-01 -3.6815539002418518e-01</leafValues></_>
        <_>
          <internalNodes>
            0 -1 50 -6.0883956030011177e-04</internalNodes>
          <leafValues>
            6.4700931310653687e-01 -3.8037252426147461e-01</leafValues></_>
        <_>
          <internalNodes>
            0 -1 138 -1.9677378237247467e-02</internalNodes>
          <leafValues>
            4.4752898812294006e-01 -6.5911054611206055e-01</leafValues></_></weakClassifiers></_>
    <!-- stage 4 -->
    <_>
      <maxWeakCount>6</maxWeakCount>
      <stageThreshold>-2.4733042716979980e-01</stageThreshold>
      <weakClassifiers>
        <_>
          <internalNodes>
            0 -1 18 -1.7497625946998596e-01</internalNodes>
          <leafValues>
            8.7692308425903320e-01 -3.0909091234207153e-01</leafValues></_>
        <_>
          <internalNodes>
            0 -1 118 -5.3432150743901730e-03</internalNodes>
          <leafValues>
            6.2550258636474609e-01 -4.7477665543556213e-01</leafValues></_>
        <_>
          <internalNodes>
            0 -1 112 -1.1540618725121021e-02</internalNodes>
          <leafValues>
            8.0465465784072876e-01 -3.8181820511817932e-01</leafValues></_>
        <_>
          <internalNodes>
            0 -1 28 2.5642412947490811e-04</internalNodes>
          <leafValues>
            4.6066403388977051e-01 -6.6900402307510376e-01</leafValues></_>
        <_>
          <internalNodes>
            0 -1 16 -1.1982865631580353e-02</internalNodes>
          <leafValues>
            9.3761360645294189e-01 -3.3441367745399475e-01</leafValues></_>
        <_>
          <internalNodes>
            0 -1 182 -3.5285018384456635e-03</internalNodes>
          <leafValues>
            7.9210501909255981e-01 -2.9590377211570740e-01</leafValues></_></weakClassifiers></_>
    <!-- stage 5 -->
    <_>
      <maxWeakCount>6</maxWeakCount>
      <stageThreshold>-4.8345541954040527e-01</stageThreshold>
      <weakClassifiers>
        <_>
          <internalNodes>
            0 -1 134 6.7118763923645020e-02</internalNodes>
          <leafValues>
            -3.6538460850715637e-01 8.6764705181121826e-01</leafValues></_>
        <_>
          <internalNodes>
            0 -1 145 -3.3800848759710789e-03</internalNodes>
          <leafValues>
            6.4920997619628906e-01 -4.6817567944526672e-01</leafValues></_>
        <_>
          <internalNodes>
            0 -1 56 2.9402419924736023e-02</internalNodes>
          <leafValues>
            -3.8864010572433472e-01 5.9403079748153687e-01</leafValues></_>
        <_>
          <internalNodes>
            0 -1 163 3.4381933510303497e-02</internalNodes>
          <leafValues>
            -2.9520937800407410e-01 9.3614500761032104e-01</leafValues></_>
        <_>
          <internalNodes>
            0 -1 87 3.1679365783929825e-03</internalNodes>
          <leafValues>
            -3.8113287091255188e-01 8.3302438259124756e-01</leafValues></_>
        <_>
          <internalNodes>
            0 -1 133 2.4065033358056098e-04</internalNodes>
          <leafValues>
            4.3241631984710693e-01 -6.7438209056854248e-01</leafValues></_></weakClassifiers></_>
    <!-- stage 6 -->
    <_>
      <maxWeakCount>6</maxWeakCount>
      <stageThreshold>-4.0590092539787292e-01</stageThreshold>
      <weakClassifiers>
        <_>
          <internalNodes>
            0 -1 165 5.1024142652750015e-02</internalNodes>
          <leafValues>
            -2.2807016968727112e-01 8.4126985073089600e-01</leafValues></_>
        <_>
          <internalNodes>
            0 -1 143 -4.2887390591204166e-03</internalNodes>
          <leafValues>
            8.5931777954101563e-01 -1.7440301179885864e-01</leafValues></_>
        <_>
          <internalNodes>
            0 -1 81 1.7901846149470657e-05</internalNodes>
          <leafValues>
            -4.8702323436737061e-01 5.1258200407028198e-01</leafValues></_>
        <_>
          <internalNodes>
            0 -1 172 -2.8306040912866592e-02</internalNodes>
          <leafValues>
            5.3807437419891357e-01 -4.7266125679016113e-01</leafValues></_>
        <_>
          <internalNodes>
            0 -1 123 1.7901846149470657e-05</internalNodes>
          <leafValues>
            -3.6147731542587280e-01 6.9230598211288452e-01</leafValues></_>
        <_>
          <internalNodes>
            0 -1 10 -1.5727435238659382e-03</internalNodes>
          <leafValues>
            -7.5121122598648071e-01 3.4727272391319275e-01</leafValues></_></weakClassifiers></_>
    <!-- stage 7 -->
    <_>
      <maxWeakCount>7</maxWeakCount>
      <stageThreshold>-4.1804215312004089e-01</stageThreshold>
      <weakClassifiers>
        <_>
          <internalNodes>
            0 -1 21 -1.5206047892570496e-01</internalNodes>
          <leafValues>
            8.1818181276321411e-01 -7.6923079788684845e-02</leafValues></_>
        <_>
          <internalNodes>
            0 -1 60 -3.4102201461791992e-03</internalNodes>
          <leafValues>
            8.1286615133285522e-01 -1.9577611982822418e-01</leafValues></_>
        <_>
          <internalNodes>
            0 -1 179 -1.1760739609599113e-02</internalNodes>
          <leafValues>
            5.6325542926788330e-01 -3.8966360688209534e-01</leafValues></_>
        <_>
          <internalNodes>
            0 -1 54 3.5149634350091219e-03</internalNodes>
          <leafValues>
            3.4869015216827393e-01 -6.3493055105209351e-01</leafValues></_>
        <_>
          <internalNodes>
            0 -1 156 1.0400284081697464e-01</internalNodes>
          <leafValues>
            -4.0263664722442627e-01 6.7228662967681885e-01</leafValues></_>
        <_>
          <internalNodes>
            0 -1 176 1.3283217325806618e-02</internalNodes>
          <leafValues>
            -2.9472839832305908e-01 7.3122149705886841e-01</leafValues></_>
        <_>
          <internalNodes>
            0 -1 185 -1.1911944020539522e-03</internalNodes>
          <leafValues>
            6.4328247308731079e-01 -4.3295431137084961e-01</leafValues></_></weakClassifiers></_>
    <!-- stage 8 -->
    <_>
      <maxWeakCount>7</maxWeakCount>
      <stageThreshold>-4.9848246574401855e-01</stageThreshold>
      <weakClassifiers>
        <_>
          <internalNodes>
            0 -1 17 -6.6553547978401184e-02</internalNodes>
          <leafValues>
            7.9562044143676758e-01 -2.8155338764190674e-01</leafValues></_>
        <_>
          <internalNodes>
            0 -1 100 1.7901846149470657e-05</internalNodes>
          <leafValues>
            -4.4646757841110229e-01 6.0033148527145386e-01</leafValues></_>
        <_>
          <internalNodes>
            0 -1 159 -3.7886188365519047e-03</internalNodes>
          <leafValues>
            6.6644477844238281e-01 -3.1775978207588196e-01</leafValues></_>
        <_>
          <internalNodes>
            0 -1 94 -1.9811755046248436e-02</internalNodes>
          <leafValues>
            3.8332626223564148e-01 -6.7363035678863525e-01</leafValues></_>
        <_>
          <internalNodes>
            0 -1 106 -4.6673166798427701e-04</internalNodes>
          <leafValues>
            -6.0072088241577148e-01 3.9718350768089294e-01</leafValues></_>
        <_>
          <internalNodes>
            0 -1 48 -1.0378286242485046e-02</internalNodes>
          <leafValues>
            5.0936925411224365e-01 -4.6724855899810791e-01</leafValues></_>
        <_>
          <internalNodes>
            0 -1 131 5.6394911371171474e-04</internalNodes>
          <leafValues>
            3.0678912997245789e-01 -7.7948397397994995e-01</leafValues></_></weakClassifiers></_>
    <!-- stage 9 -->
    <_>
      <maxWeakCount>6</maxWeakCount>
      <stageThreshold>-2.4030211567878723e-01</stageThreshold>
      <weakClassifiers>
        <_>
          <internalNodes>
            0 -1 110 2.7736628544516861e-04</internalNodes>
          <leafValues>
            5.9162300825119019e-01 -6.7346936464309692e-01</leafValues></_>
        <_>
          <internalNodes>
            0 -1 6 -1.3416528701782227e-02</internalNodes>
          <leafValues>
            4.7496178746223450e-01 -5.4606574773788452e-01</leafValues></_>
        <_>
          <internalNodes>
            0 -1 40 4.2227186262607574e-02</internalNodes>
          <leafValues>
            -1.9700980186462402e-01 1.</leafValues></_>
        <_>
          <internalNodes>
            0 -1 124 7.0139463059604168e-04</internalNodes>
          <leafValues>
            2.7250584959983826e-01 -7.8500247001647949e-01</leafValues></_>
        <_>
          <internalNodes>
            0 -1 107 2.5269467383623123e-02</internalNodes>
          <leafValues>
            -3.7358582019805908e-01 6.0950982570648193e-01</leafValues></_>
        <_>
          <internalNodes>
            0 -1 188 -5.4034194909036160e-04</internalNodes>
          <leafValues>
            -8.3381420373916626e-01 2.9422715306282043e-01</leafValues></_></weakClassifiers></_>
    <!-- stage 10 -->
    <_>
      <maxWeakCount>5</maxWeakCount>
      <stageThreshold>-2.4940086901187897e-01</stageThreshold>
      <weakClassifiers>
        <_>
          <internalNodes>
            0 -1 35 -5.1574513316154480e-02</internalNodes>
          <leafValues>
            -7.3913043737411499e-01 5.8762884140014648e-01</leafValues></_>
        <_>
          <internalNodes>
            0 -1 175 2.8732449281960726e-03</internalNodes>
          <leafValues>
            -2.7510353922843933e-01 8.2971608638763428e-01</leafValues></_>
        <_>
          <internalNodes>
            0 -1 116 -1.3988621532917023e-02</internalNodes>
          <leafValues>
            4.5721340179443359e-01 -5.5117285251617432e-01</leafValues></_>
        <_>
          <internalNodes>
            0 -1 120 -3.4948736429214478e-03</internalNodes>
          <leafValues>
            5.3141987323760986e-01 -4.9239054322242737e-01</leafValues></_>
        <_>
          <internalNodes>
            0 -1 136 -4.3332688510417938e-03</internalNodes>
          <leafValues>
            8.0001026391983032e-01 -3.4867584705352783e-01</leafValues></_></weakClassifiers></_>
    <!-- stage 11 -->
    <_>
      <maxWeakCount>7</maxWeakCount>
      <stageThreshold>3.4004908055067062e-02</stageThreshold>
      <weakClassifiers>
        <_>
          <internalNodes>
            0 -1 113 -1.4786602696403861e-04</internalNodes>
          <leafValues>
            -4.1935482621192932e-01 5.9550559520721436e-01</leafValues></_>
        <_>
          <internalNodes>
            0 -1 137 -9.0992823243141174e-03</internalNodes>
          <leafValues>
            9.4197636842727661e-01 -2.0227806270122528e-01</leafValues></_>
        <_>
          <internalNodes>
            0 -1 30 -9.3265424948185682e-04</internalNodes>
          <leafValues>
            -5.3046232461929321e-01 4.4428062438964844e-01</leafValues></_>
        <_>
          <internalNodes>
            0 -1 41 4.8229063395410776e-05</internalNodes>
          <leafValues>
            -4.2089685797691345e-01 5.4639017581939697e-01</leafValues></_>
        <_>
          <internalNodes>
            0 -1 155 -1.4576716057490557e-04</internalNodes>
          <leafValues>
            -6.3934552669525146e-01 3.6069840192794800e-01</leafValues></_>
        <_>
          <internalNodes>
            0 -1 190 1.1837661731988192e-03</internalNodes>
          <leafValues>
            -3.4875357151031494e-01 8.5607457160949707e-01</leafValues></_>
        <_>
          <internalNodes>
            0 -1 47 8.8956716354005039e-05</internalNodes>
          <leafValues>
            -3.4697780013084412e-01 6.5743303298950195e-01</leafValues></_></weakClassifiers></_>
    <!-- stage 12 -->
    <_>
      <maxWeakCount>6</maxWeakCount>
      <stageThreshold>-2.4804908037185669e-01</stageThreshold>
      <weakClassifiers>
        <_>
          <internalNodes>
            0 -1 103 -1.5787582015036605e-05</internalNodes>
          <leafValues>
            8.0952382087707520e-01 -1.9298245012760162e-01</leafValues></_>
        <_>
          <internalNodes>
            0 -1 71 1.8405782611807808e-05</internalNodes>
          <leafValues>
            -4.2192745208740234e-01 6.0132277011871338e-01</leafValues></_>
        <_>
          <internalNodes>
            0 -1 171 4.1887704282999039e-03</internalNodes>
          <leafValues>
            -3.1189265847206116e-01 7.7763348817825317e-01</leafValues></_>
        <_>
          <internalNodes>
            0 -1 167 -7.0944850449450314e-05</internalNodes>
          <leafValues>
            5.6880068778991699e-01 -4.0150198340415955e-01</leafValues></_>
        <_>
          <internalNodes>
            0 -1 170 -1.9210308892070316e-05</internalNodes>
          <leafValues>
            6.8322807550430298e-01 -3.6705878376960754e-01</leafValues></_>
        <_>
          <internalNodes>
            0 -1 119 -2.2584456019103527e-03</internalNodes>
          <leafValues>
            4.7701159119606018e-01 -5.3273600339889526e-01</leafValues></_></weakClassifiers></_>
    <!-- stage 13 -->
    <_>
      <maxWeakCount>6</maxWeakCount>
      <stageThreshold>-1.0537004470825195e+00</stageThreshold>
      <weakClassifiers>
        <_>
          <internalNodes>
            0 -1 72 6.4037943957373500e-05</internalNodes>
          <leafValues>
            -1.5686275064945221e-01 6.9565218687057495e-01</leafValues></_>
        <_>
          <internalNodes>
            0 -1 193 4.2591732926666737e-04</internalNodes>
          <leafValues>
            -3.7625187635421753e-01 5.0273931026458740e-01</leafValues></_>
        <_>
          <internalNodes>
            0 -1 192 2.0023202523589134e-03</internalNodes>
          <leafValues>
            -2.5557258725166321e-01 7.8169536590576172e-01</leafValues></_>
        <_>
          <internalNodes>
            0 -1 62 -1.9090286514256150e-04</internalNodes>
          <leafValues>
            4.1111955046653748e-01 -5.2684575319290161e-01</leafValues></_>
        <_>
          <internalNodes>
            0 -1 104 -8.9853929239325225e-05</internalNodes>
          <leafValues>
            5.6378281116485596e-01 -4.1658386588096619e-01</leafValues></_>
        <_>
          <internalNodes>
            0 -1 135 -1.5150723047554493e-03</internalNodes>
          <leafValues>
            8.2032608985900879e-01 -3.0195021629333496e-01</leafValues></_></weakClassifiers></_>
    <!-- stage 14 -->
    <_>
      <maxWeakCount>5</maxWeakCount>
      <stageThreshold>-1.2676373124122620e-01</stageThreshold>
      <weakClassifiers>
        <_>
          <internalNodes>
            0 -1 84 1.8405782611807808e-05</internalNodes>
          <leafValues>
            -2.9870128631591797e-01 6.3190186023712158e-01</leafValues></_>
        <_>
          <internalNodes>
            0 -1 42 -6.0444888658821583e-03</internalNodes>
          <leafValues>
            6.6267526149749756e-01 -2.5826859474182129e-01</leafValues></_>
        <_>
          <internalNodes>
            0 -1 45 -6.4091384410858154e-03</internalNodes>
          <leafValues>
            5.3866702318191528e-01 -4.3393889069557190e-01</leafValues></_>
        <_>
          <internalNodes>
            0 -1 27 -6.8563623353838921e-03</internalNodes>
          <leafValues>
            6.9197911024093628e-01 -3.7054595351219177e-01</leafValues></_>
        <_>
          <internalNodes>
            0 -1 115 -9.1307330876588821e-03</internalNodes>
          <leafValues>
            4.1102683544158936e-01 -6.1685597896575928e-01</leafValues></_></weakClassifiers></_>
    <!-- stage 15 -->
    <_>
      <maxWeakCount>6</maxWeakCount>
      <stageThreshold>-8.2052582502365112e-01</stageThreshold>
      <weakClassifiers>
        <_>
          <internalNodes>
            0 -1 15 1.5001585707068443e-02</internalNodes>
          <leafValues>
            4.9763032793998718e-01 -8.6206895112991333e-01</leafValues></_>
        <_>
          <internalNodes>
            0 -1 108 -1.5134927525650710e-04</internalNodes>
          <leafValues>
            -7.2006994485855103e-01 3.3203697204589844e-01</leafValues></_>
        <_>
          <internalNodes>
            0 -1 149 -2.9250737279653549e-03</internalNodes>
          <leafValues>
            7.8557127714157104e-01 -3.3601438999176025e-01</leafValues></_>
        <_>
          <internalNodes>
            0 -1 69 1.8405782611807808e-05</internalNodes>
          <leafValues>
            -4.4851604104042053e-01 5.0275862216949463e-01</leafValues></_>
        <_>
          <internalNodes>
            0 -1 186 -1.9323274027556181e-03</internalNodes>
          <leafValues>
            9.4927459955215454e-01 -2.7969318628311157e-01</leafValues></_>
        <_>
          <internalNodes>
            0 -1 97 7.9293031012639403e-04</internalNodes>
          <leafValues>
            4.3560209870338440e-01 -5.8596956729888916e-01</leafValues></_></weakClassifiers></_>
    <!-- stage 16 -->
    <_>
      <maxWeakCount>6</maxWeakCount>
      <stageThreshold>-2.0086336135864258e-01</stageThreshold>
      <weakClassifiers>
        <_>
          <internalNodes>
            0 -1 132 1.8728988652583212e-04</internalNodes>
          <leafValues>
            6.8152868747711182e-01 -3.2530120015144348e-01</leafValues></_>
        <_>
          <internalNodes>
            0 -1 5 4.8455465584993362e-03</internalNodes>
          <leafValues>
            -2.1978111565113068e-01 7.7607202529907227e-01</leafValues></_>
        <_>
          <internalNodes>
            0 -1 24 -1.1995164677500725e-02</internalNodes>
          <leafValues>
            8.6675131320953369e-01 -2.2303730249404907e-01</leafValues></_>
        <_>
          <internalNodes>
            0 -1 64 -1.3275452889502048e-02</internalNodes>
          <leafValues>
            8.0022335052490234e-01 -2.3798725008964539e-01</leafValues></_>
        <_>
          <internalNodes>
            0 -1 127 -6.1661517247557640e-03</internalNodes>
          <leafValues>
            4.8379501700401306e-01 -4.8538962006568909e-01</leafValues></_>
        <_>
          <internalNodes>
            0 -1 128 1.0716656834119931e-04</internalNodes>
          <leafValues>
            3.6862975358963013e-01 -6.8538141250610352e-01</leafValues></_></weakClassifiers></_>
    <!-- stage 17 -->
    <_>
      <maxWeakCount>8</maxWeakCount>
      <stageThreshold>-2.6940223574638367e-01</stageThreshold>
      <weakClassifiers>
        <_>
          <internalNodes>
            0 -1 82 1.5400553820654750e-03</internalNodes>
          <leafValues>
            5.8426964282989502e-01 -3.8709676265716553e-01</leafValues></_>
        <_>
          <internalNodes>
            0 -1 34 -3.7018589675426483e-02</internalNodes>
          <leafValues>
            4.7414490580558777e-01 -4.9800205230712891e-01</leafValues></_>
        <_>
          <internalNodes>
            0 -1 52 -4.2579296976327896e-02</internalNodes>
          <leafValues>
            7.0805698633193970e-01 -2.6460438966751099e-01</leafValues></_>
        <_>
          <internalNodes>
            0 -1 53 1.5700997319072485e-03</internalNodes>
          <leafValues>
            -2.1457557380199432e-01 7.2857689857482910e-01</leafValues></_>
        <_>
          <internalNodes>
            0 -1 36 7.0361245889216661e-04</internalNodes>
          <leafValues>
            -1.9685313105583191e-01 8.2320225238800049e-01</leafValues></_>
        <_>
          <internalNodes>
            0 -1 49 -1.8734566401690245e-03</internalNodes>
          <leafValues>
            6.8570643663406372e-01 -2.5872096419334412e-01</leafValues></_>
        <_>
          <internalNodes>
            0 -1 142 5.5121048353612423e-03</internalNodes>
          <leafValues>
            -5.6270217895507813e-01 3.6321011185646057e-01</leafValues></_>
        <_>
          <internalNodes>
            0 -1 96 3.4737768582999706e-03</internalNodes>
          <leafValues>
            2.9801025986671448e-01 -7.2984820604324341e-01</leafValues></_></weakClassifiers></_>
    <!-- stage 18 -->
    <_>
      <maxWeakCount>8</maxWeakCount>
      <stageThreshold>-1.6516512632369995e-01</stageThreshold>
      <weakClassifiers>
        <_>
          <internalNodes>
            0 -1 12 -1.3496783375740051e-01</internalNodes>
          <leafValues>
            7.5000000000000000e-01 -1.4285714924335480e-01</leafValues></_>
        <_>
          <internalNodes>
            0 -1 174 4.8634735867381096e-03</internalNodes>
          <leafValues>
            -2.0381484925746918e-01 7.9520785808563232e-01</leafValues></_>
        <_>
          <internalNodes>
            0 -1 183 -3.7308456376194954e-03</internalNodes>
          <leafValues>
            9.2081069946289063e-01 -1.6545934975147247e-01</leafValues></_>
        <_>
          <internalNodes>
            0 -1 9 1.4348432421684265e-01</internalNodes>
          <leafValues>
            2.2807826101779938e-01 -9.5747548341751099e-01</leafValues></_>
        <_>
          <internalNodes>
            0 -1 80 2.7063033485319465e-05</internalNodes>
          <leafValues>
            -4.5514193177223206e-01 4.1109445691108704e-01</leafValues></_>
        <_>
          <internalNodes>
            0 -1 180 -1.1133379302918911e-03</internalNodes>
          <leafValues>
            6.3316833972930908e-01 -3.1125783920288086e-01</leafValues></_>
        <_>
          <internalNodes>
            0 -1 129 2.3187730403151363e-04</internalNodes>
          <leafValues>
            3.3313935995101929e-01 -6.2920653820037842e-01</leafValues></_>
        <_>
          <internalNodes>
            0 -1 70 -1.5251301229000092e-03</internalNodes>
          <leafValues>
            7.1353471279144287e-01 -2.9616829752922058e-01</leafValues></_></weakClassifiers></_>
    <!-- stage 19 -->
    <_>
      <maxWeakCount>7</maxWeakCount>
      <stageThreshold>-3.6843970417976379e-01</stageThreshold>
      <weakClassifiers>
        <_>
          <internalNodes>
            0 -1 130 -7.9358775110449642e-05</internalNodes>
          <leafValues>
            -4.6428570151329041e-01 5.7608693838119507e-01</leafValues></_>
        <_>
          <internalNodes>
            0 -1 195 -8.6994916200637817e-03</internalNodes>
          <leafValues>
            -5.8280545473098755e-01 4.2951846122741699e-01</leafValues></_>
        <_>
          <internalNodes>
            0 -1 77 -4.7723883762955666e-03</internalNodes>
          <leafValues>
            5.7155698537826538e-01 -4.2692682147026062e-01</leafValues></_>
        <_>
          <internalNodes>
            0 -1 146 -4.2237510206177831e-04</internalNodes>
          <leafValues>
            -5.9796249866485596e-01 3.6272192001342773e-01</leafValues></_>
        <_>
          <internalNodes>
            0 -1 78 3.4778693225234747e-04</internalNodes>
          <leafValues>
            -2.8601798415184021e-01 6.5137028694152832e-01</leafValues></_>
        <_>
          <internalNodes>
            0 -1 101 2.5029561948031187e-04</internalNodes>
          <leafValues>
            -5.6612390279769897e-01 3.8430374860763550e-01</leafValues></_>
        <_>
          <internalNodes>
            0 -1 47 1.5622552018612623e-04</internalNodes>
          <leafValues>
            -3.8276270031929016e-01 6.7201465368270874e-01</leafValues></_></weakClassifiers></_>
    <!-- stage 20 -->
    <_>
      <maxWeakCount>8</maxWeakCount>
      <stageThreshold>-4.7671383619308472e-01</stageThreshold>
      <weakClassifiers>
        <_>
          <internalNodes>
            0 -1 154 3.6251579876989126e-04</internalNodes>
          <leafValues>
            5.6756758689880371e-01 -4.5454546809196472e-01</leafValues></_>
        <_>
          <internalNodes>
            0 -1 13 -8.7710291147232056e-02</internalNodes>
          <leafValues>
            5.6510156393051147e-01 -3.3921575546264648e-01</leafValues></_>
        <_>
          <internalNodes>
            0 -1 89 -1.1397332884371281e-02</internalNodes>
          <leafValues>
            5.4700195789337158e-01 -3.8784986734390259e-01</leafValues></_>
        <_>
          <internalNodes>
            0 -1 23 3.4349146299064159e-03</internalNodes>
          <leafValues>
            3.0528515577316284e-01 -5.8981812000274658e-01</leafValues></_>
        <_>
          <internalNodes>
            0 -1 79 -1.3214784848969430e-04</internalNodes>
          <leafValues>
            4.3855011463165283e-01 -4.3290898203849792e-01</leafValues></_>
        <_>
          <internalNodes>
            0 -1 114 2.6022911071777344e-02</internalNodes>
          <leafValues>
            -4.3295130133628845e-01 4.1062265634536743e-01</leafValues></_>
        <_>
          <internalNodes>
            0 -1 178 -1.0491327848285437e-03</internalNodes>
          <leafValues>
            -7.4351924657821655e-01 2.6437100768089294e-01</leafValues></_>
        <_>
          <internalNodes>
            0 -1 68 4.1655596578493714e-04</internalNodes>
          <leafValues>
            2.3047739267349243e-01 -7.7732443809509277e-01</leafValues></_></weakClassifiers></_>
    <!-- stage 21 -->
    <_>
      <maxWeakCount>8</maxWeakCount>
      <stageThreshold>-6.3919472694396973e-01</stageThreshold>
      <weakClassifiers>
        <_>
          <internalNodes>
            0 -1 121 -5.1680050790309906e-02</internalNodes>
          <leafValues>
            8.0645161867141724e-01 3.4013606607913971e-02</leafValues></_>
        <_>
          <internalNodes>
            0 -1 164 -2.1023896988481283e-04</internalNodes>
          <leafValues>
            5.8770734071731567e-01 -2.4574480950832367e-01</leafValues></_>
        <_>
          <internalNodes>
            0 -1 58 -3.7154830992221832e-02</internalNodes>
          <leafValues>
            -5.4642450809478760e-01 3.6629074811935425e-01</leafValues></_>
        <_>
          <internalNodes>
            0 -1 90 2.0276316718081944e-05</internalNodes>
          <leafValues>
            -5.0513285398483276e-01 4.0773689746856689e-01</leafValues></_>
        <_>
          <internalNodes>
            0 -1 66 -3.5767327994108200e-02</internalNodes>
          <leafValues>
            8.7458336353302002e-01 -2.3605540394783020e-01</leafValues></_>
        <_>
          <internalNodes>
            0 -1 39 2.9425695538520813e-02</internalNodes>
          <leafValues>
            -2.9632034897804260e-01 7.0713442564010620e-01</leafValues></_>
        <_>
          <internalNodes>
            0 -1 1 2.1133632399141788e-03</internalNodes>
          <leafValues>
            4.3325093388557434e-01 -4.4805389642715454e-01</leafValues></_>
        <_>
          <internalNodes>
            0 -1 153 -2.5199051015079021e-03</internalNodes>
          <leafValues>
            7.1337062120437622e-01 -3.1180098652839661e-01</leafValues></_></weakClassifiers></_>
    <!-- stage 22 -->
    <_>
      <maxWeakCount>8</maxWeakCount>
      <stageThreshold>-8.2925444841384888e-01</stageThreshold>
      <weakClassifiers>
        <_>
          <internalNodes>
            0 -1 91 2.3799892514944077e-03</internalNodes>
          <leafValues>
            -5.9829059988260269e-02 7.0731705427169800e-01</leafValues></_>
        <_>
          <internalNodes>
            0 -1 177 -2.0616557449102402e-03</internalNodes>
          <leafValues>
            8.0671298503875732e-01 -1.5398791432380676e-01</leafValues></_>
        <_>
          <internalNodes>
            0 -1 122 -4.6479720622301102e-03</internalNodes>
          <leafValues>
            5.2299845218658447e-01 -3.3165341615676880e-01</leafValues></_>
        <_>
          <internalNodes>
            0 -1 43 -1.3315984979271889e-03</internalNodes>
          <leafValues>
            4.3984442949295044e-01 -4.1233357787132263e-01</leafValues></_>
        <_>
          <internalNodes>
            0 -1 57 1.8285774785908870e-05</internalNodes>
          <leafValues>
            -4.2670103907585144e-01 4.2523619532585144e-01</leafValues></_>
        <_>
          <internalNodes>
            0 -1 147 1.6732522635720670e-04</internalNodes>
          <leafValues>
            2.8750962018966675e-01 -6.1032134294509888e-01</leafValues></_>
        <_>
          <internalNodes>
            0 -1 61 5.3143105469644070e-04</internalNodes>
          <leafValues>
            -3.6452433466911316e-01 5.6176871061325073e-01</leafValues></_>
        <_>
          <internalNodes>
            0 -1 76 -9.3428289983421564e-04</internalNodes>
          <leafValues>
            6.7791819572448730e-01 -2.8152817487716675e-01</leafValues></_></weakClassifiers></_>
    <!-- stage 23 -->
    <_>
      <maxWeakCount>7</maxWeakCount>
      <stageThreshold>-8.3942756056785583e-02</stageThreshold>
      <weakClassifiers>
        <_>
          <internalNodes>
            0 -1 98 8.0069832503795624e-02</internalNodes>
          <leafValues>
            -7.1942447684705257e-03 8.0198019742965698e-01</leafValues></_>
        <_>
          <internalNodes>
            0 -1 51 -3.8047714624553919e-03</internalNodes>
          <leafValues>
            8.6784338951110840e-01 -1.3124810159206390e-01</leafValues></_>
        <_>
          <internalNodes>
            0 -1 92 -4.3487413786351681e-03</internalNodes>
          <leafValues>
            7.2962778806686401e-01 -2.0254556834697723e-01</leafValues></_>
        <_>
          <internalNodes>
            0 -1 166 1.0324149479856715e-04</internalNodes>
          <leafValues>
            5.4942238330841064e-01 -2.9512435197830200e-01</leafValues></_>
        <_>
          <internalNodes>
            0 -1 65 1.1861737817525864e-02</internalNodes>
          <leafValues>
            3.1340929865837097e-01 -6.3874620199203491e-01</leafValues></_>
        <_>
          <internalNodes>
            0 -1 44 -7.2736516594886780e-03</internalNodes>
          <leafValues>
            8.8948398828506470e-01 -2.3202669620513916e-01</leafValues></_>
        <_>
          <internalNodes>
            0 -1 31 -2.0701773464679718e-03</internalNodes>
          <leafValues>
            7.1238797903060913e-01 -2.3077873885631561e-01</leafValues></_></weakClassifiers></_>
    <!-- stage 24 -->
    <_>
      <maxWeakCount>8</maxWeakCount>
      <stageThreshold>-1.2194324284791946e-01</stageThreshold>
      <weakClassifiers>
        <_>
          <internalNodes>
            0 -1 141 2.5692855706438422e-04</internalNodes>
          <leafValues>
            5.8823531866073608e-01 -2.8571429848670959e-01</leafValues></_>
        <_>
          <internalNodes>
            0 -1 0 -5.5254518520087004e-04</internalNodes>
          <leafValues>
            -6.8872523307800293e-01 3.1835299730300903e-01</leafValues></_>
        <_>
          <internalNodes>
            0 -1 184 8.2376347854733467e-03</internalNodes>
          <leafValues>
            -3.0772683024406433e-01 7.2502332925796509e-01</leafValues></_>
        <_>
          <internalNodes>
            0 -1 157 4.2522221803665161e-02</internalNodes>
          <leafValues>
            -2.7874195575714111e-01 8.0742555856704712e-01</leafValues></_>
        <_>
          <internalNodes>
            0 -1 8 -5.0828332314267755e-04</internalNodes>
          <leafValues>
            5.1011365652084351e-01 -3.7441056966781616e-01</leafValues></_>
        <_>
          <internalNodes>
            0 -1 150 -1.5356630319729447e-04</internalNodes>
          <leafValues>
            4.5011949539184570e-01 -4.9420341849327087e-01</leafValues></_>
        <_>
          <internalNodes>
            0 -1 148 -8.7425298988819122e-04</internalNodes>
          <leafValues>
            8.1046295166015625e-01 -2.5232318043708801e-01</leafValues></_>
        <_>
          <internalNodes>
            0 -1 22 1.6551319509744644e-02</internalNodes>
          <leafValues>
            -2.0564979314804077e-01 8.9816421270370483e-01</leafValues></_></weakClassifiers></_>
    <!-- stage 25 -->
    <_>
      <maxWeakCount>9</maxWeakCount>
      <stageThreshold>-4.4568857550621033e-01</stageThreshold>
      <weakClassifiers>
        <_>
          <internalNodes>
            0 -1 86 -4.1751045500859618e-05</internalNodes>
          <leafValues>
            7.2519081830978394e-01 -1.3761468231678009e-01</leafValues></_>
        <_>
          <internalNodes>
            0 -1 67 1.8109429220203310e-05</internalNodes>
          <leafValues>
            -3.3202436566352844e-01 4.8595422506332397e-01</leafValues></_>
        <_>
          <internalNodes>
            0 -1 93 5.0438509788364172e-04</internalNodes>
          <leafValues>
            2.5207653641700745e-01 -7.4977207183837891e-01</leafValues></_>
        <_>
          <internalNodes>
            0 -1 173 -3.9803637191653252e-03</internalNodes>
          <leafValues>
            7.7779895067214966e-01 -2.5826045870780945e-01</leafValues></_>
        <_>
          <internalNodes>
            0 -1 189 1.9366848282516003e-03</internalNodes>
          <leafValues>
            -2.1785925328731537e-01 7.5174522399902344e-01</leafValues></_>
        <_>
          <internalNodes>
            0 -1 152 1.7636853735893965e-03</internalNodes>
          <leafValues>
            2.8520333766937256e-01 -6.4142173528671265e-01</leafValues></_>
        <_>
          <internalNodes>
            0 -1 194 1.7628452042117715e-04</internalNodes>
          <leafValues>
            -4.9189588427543640e-01 4.0777093172073364e-01</leafValues></_>
        <_>
          <internalNodes>
            0 -1 25 -2.3171762586571276e-04</internalNodes>
          <leafValues>
            -4.7791910171508789e-01 4.0671208500862122e-01</leafValues></_>
        <_>
          <internalNodes>
            0 -1 168 -1.3089363928884268e-03</internalNodes>
          <leafValues>
            -8.2986706495285034e-01 2.2223177552223206e-01</leafValues></_></weakClassifiers></_>
    <!-- stage 26 -->
    <_>
      <maxWeakCount>9</maxWeakCount>
      <stageThreshold>-4.2977419495582581e-01</stageThreshold>
      <weakClassifiers>
        <_>
          <internalNodes>
            0 -1 37 -5.3674664348363876e-02</internalNodes>
          <leafValues>
            8.4090906381607056e-01 3.9473682641983032e-02</leafValues></_>
        <_>
          <internalNodes>
            0 -1 73 7.8354445577133447e-05</internalNodes>
          <leafValues>
            -2.8061667084693909e-01 5.4237896203994751e-01</leafValues></_>
        <_>
          <internalNodes>
            0 -1 33 -1.3198217493481934e-04</internalNodes>
          <leafValues>
            -5.0772452354431152e-01 3.4940949082374573e-01</leafValues></_>
        <_>
          <internalNodes>
            0 -1 160 -2.6474208571016788e-03</internalNodes>
          <leafValues>
            7.4304723739624023e-01 -3.2459914684295654e-01</leafValues></_>
        <_>
          <internalNodes>
            0 -1 74 -4.6730350004509091e-04</internalNodes>
          <leafValues>
            6.1231553554534912e-01 -2.8674173355102539e-01</leafValues></_>
        <_>
          <internalNodes>
            0 -1 26 -3.6425283178687096e-04</internalNodes>
          <leafValues>
            6.2400972843170166e-01 -3.1127345561981201e-01</leafValues></_>
        <_>
          <internalNodes>
            0 -1 29 6.2763586174696684e-04</internalNodes>
          <leafValues>
            2.6475161314010620e-01 -8.4119188785552979e-01</leafValues></_>
        <_>
          <internalNodes>
            0 -1 75 -1.7772521823644638e-03</internalNodes>
          <leafValues>
            8.6984318494796753e-01 -2.6573058962821960e-01</leafValues></_>
        <_>
          <internalNodes>
            0 -1 191 -5.2411021897569299e-05</internalNodes>
          <leafValues>
            5.5657655000686646e-01 -3.8174444437026978e-01</leafValues></_></weakClassifiers></_>
    <!-- stage 27 -->
    <_>
      <maxWeakCount>8</maxWeakCount>
      <stageThreshold>-5.9578794240951538e-01</stageThreshold>
      <weakClassifiers>
        <_>
          <internalNodes>
            0 -1 111 -1.3007406960241497e-04</internalNodes>
          <leafValues>
            -4.0000000596046448e-01 5.2631580829620361e-01</leafValues></_>
        <_>
          <internalNodes>
            0 -1 63 -3.3289878629148006e-03</internalNodes>
          <leafValues>
            4.9636602401733398e-01 -2.8079274296760559e-01</leafValues></_>
        <_>
          <internalNodes>
            0 -1 126 -3.9504626765847206e-03</internalNodes>
          <leafValues>
            3.6602440476417542e-01 -5.1525908708572388e-01</leafValues></_>
        <_>
          <internalNodes>
            0 -1 161 8.0744791775941849e-03</internalNodes>
          <leafValues>
            -1.7914666235446930e-01 9.4397687911987305e-01</leafValues></_>
        <_>
          <internalNodes>
            0 -1 162 -1.8767802976071835e-03</internalNodes>
          <leafValues>
            4.8711496591567993e-01 -4.3603646755218506e-01</leafValues></_>
        <_>
          <internalNodes>
            0 -1 158 9.8966091172769666e-05</internalNodes>
          <leafValues>
            3.9840367436408997e-01 -4.5827922224998474e-01</leafValues></_>
        <_>
          <internalNodes>
            0 -1 102 7.6018758118152618e-03</internalNodes>
          <leafValues>
            -4.0073302388191223e-01 4.6648326516151428e-01</leafValues></_>
        <_>
          <internalNodes>
            0 -1 109 7.5405475217849016e-04</internalNodes>
          <leafValues>
            2.9462498426437378e-01 -7.4545329809188843e-01</leafValues></_></weakClassifiers></_>
    <!-- stage 28 -->
    <_>
      <maxWeakCount>9</maxWeakCount>
      <stageThreshold>-4.1533023118972778e-01</stageThreshold>
      <weakClassifiers>
        <_>
          <internalNodes>
            0 -1 99 -8.1908852735068649e-05</internalNodes>
          <leafValues>
            -3.9130434393882751e-01 5.0515460968017578e-01</leafValues></_>
        <_>
          <internalNodes>
            0 -1 86 -6.6057327785529196e-05</internalNodes>
          <leafValues>
            4.3036562204360962e-01 -3.7112399935722351e-01</leafValues></_>
        <_>
          <internalNodes>
            0 -1 117 -2.5848704390227795e-03</internalNodes>
          <leafValues>
            6.9801467657089233e-01 -2.2560636699199677e-01</leafValues></_>
        <_>
          <internalNodes>
            0 -1 140 9.0826138854026794e-02</internalNodes>
          <leafValues>
            -2.7904182672500610e-01 5.8919835090637207e-01</leafValues></_>
        <_>
          <internalNodes>
            0 -1 3 -8.3995740860700607e-03</internalNodes>
          <leafValues>
            -7.7084332704544067e-01 2.7560496330261230e-01</leafValues></_>
        <_>
          <internalNodes>
            0 -1 181 2.7104485780000687e-03</internalNodes>
          <leafValues>
            -3.0509203672409058e-01 7.7684932947158813e-01</leafValues></_>
        <_>
          <internalNodes>
            0 -1 105 -1.8824313301593065e-03</internalNodes>
          <leafValues>
            8.4085828065872192e-01 -1.9113278388977051e-01</leafValues></_>
        <_>
          <internalNodes>
            0 -1 83 -3.1228815205395222e-03</internalNodes>
          <leafValues>
            7.5641775131225586e-01 -2.4824367463588715e-01</leafValues></_>
        <_>
          <internalNodes>
            0 -1 169 -1.0839444585144520e-03</internalNodes>
          <leafValues>
            8.3615469932556152e-01 -1.9913063943386078e-01</leafValues></_></weakClassifiers></_>
    <!-- stage 29 -->
    <_>
      <maxWeakCount>8</maxWeakCount>
      <stageThreshold>-5.1302045583724976e-01</stageThreshold>
      <weakClassifiers>
        <_>
          <internalNodes>
            0 -1 2 9.1034509241580963e-02</internalNodes>
          <leafValues>
            4.8356807231903076e-01 -8.5185188055038452e-01</leafValues></_>
        <_>
          <internalNodes>
            0 -1 46 -6.2801688909530640e-03</internalNodes>
          <leafValues>
            8.4398525953292847e-01 -2.1198135614395142e-01</leafValues></_>
        <_>
          <internalNodes>
            0 -1 55 3.2815057784318924e-03</internalNodes>
          <leafValues>
            -2.8727862238883972e-01 5.9451907873153687e-01</leafValues></_>
        <_>
          <internalNodes>
            0 -1 151 -1.6133452299982309e-03</internalNodes>
          <leafValues>
            4.4261330366134644e-01 -4.6826064586639404e-01</leafValues></_>
        <_>
          <internalNodes>
            0 -1 85 -2.9887171695008874e-04</internalNodes>
          <leafValues>
            -4.9011492729187012e-01 4.3841451406478882e-01</leafValues></_>
        <_>
          <internalNodes>
            0 -1 20 -2.4906350299715996e-02</internalNodes>
          <leafValues>
            8.1426471471786499e-01 -3.0066454410552979e-01</leafValues></_>
        <_>
          <internalNodes>
            0 -1 187 -5.4689345415681601e-04</internalNodes>
          <leafValues>
            -7.6708167791366577e-01 3.1432244181632996e-01</leafValues></_>
        <_>
          <internalNodes>
            0 -1 59 1.0167694563278928e-04</internalNodes>
          <leafValues>
            -4.6348479390144348e-01 4.9090182781219482e-01</leafValues></_></weakClassifiers></_></stages>
  <features>
    <_>
      <rects>
        <_>
          0 0 3 2 -1.</_>
        <_>
          1 0 1 2 3.</_></rects>
      <tilted>0</tilted></_>
    <_>
      <rects>
        <_>
          0 0 8 3 -1.</_>
        <_>
          4 0 4 3 2.</_></rects>
      <tilted>0</tilted></_>
    <_>
      <rects>
        <_>
          0 0 4 18 -1.</_>
        <_>
          0 9 4 9 2.</_></rects>
      <tilted>0</tilted></_>
    <_>
      <rects>
        <_>
          0 0 16 1 -1.</_>
        <_>
          8 0 8 1 2.</_></rects>
      <tilted>0</tilted></_>
    <_>
      <rects>
        <_>
          0 1 1 24 -1.</_>
        <_>
          0 13 1 12 2.</_></rects>
      <tilted>0</tilted></_>
    <_>
      <rects>
        <_>
          0 1 3 16 -1.</_>
        <_>
          1 1 1 16 3.</_></rects>
      <tilted>0</tilted></_>
    <_>
      <rects>
        <_>
          0 1 4 30 -1.</_>
        <_>
          2 1 2 30 2.</_></rects>
      <tilted>0</tilted></_>
    <_>
      <rects>
        <_>
          0 1 6 24 -1.</_>
        <_>
          3 1 3 24 2.</_></rects>
      <tilted>0</tilted></_>
    <_>
      <rects>
        <_>
          0 1 10 3 -1.</_>
        <_>
          5 1 5 3 2.</_></rects>
      <tilted>0</tilted></_>
    <_>
      <rects>
        <_>
          0 1 14 24 -1.</_>
        <_>
          0 13 14 12 2.</_></rects>
      <tilted>0</tilted></_>
    <_>
      <rects>
        <_>
          0 2 1 4 -1.</_>
        <_>
          0 4 1 2 2.</_></rects>
      <tilted>0</tilted></_>
    <_>
      <rects>
        <_>
          0 2 6 28 -1.</_>
        <_>
          3 2 3 28 2.</_></rects>
      <tilted>0</tilted></_>
    <_>
      <rects>
        <_>
          0 2 15 15 -1.</_>
        <_>
          5 2 5 15 3.</_></rects>
      <tilted>0</tilted></_>
    <_>
      <rects>
        <_>
          0 4 6 19 -1.</_>
        <_>
          3 4 3 19 2.</_></rects>
      <tilted>0</tilted></_>
    <_>
      <rects>
        <_>
          0 4 12 11 -1.</_>
        <_>
          4 4 4 11 3.</_></rects>
      <tilted>0</tilted></_>
    <_>
      <rects>
        <_>
          0 5 16 1 -1.</_>
        <_>
          8 5 8 1 2.</_></rects>
      <tilted>0</tilted></_>
    <_>
      <rects>
        <_>
          0 6 6 6 -1.</_>
        <_>
          2 6 2 6 3.</_></rects>
      <tilted>0</tilted></_>
    <_>
      <rects>
        <_>
          0 7 6 23 -1.</_>
        <_>
          3 7 3 23 2.</_></rects>
      <tilted>0</tilted></_>
    <_>
      <rects>
        <_>
          0 8 15 16 -1.</_>
        <_>
          5 8 5 16 3.</_></rects>
      <tilted>0</tilted></_>
    <_>
      <rects>
        <_>
          0 11 15 11 -1.</_>
        <_>
          5 11 5 11 3.</_></rects>
      <tilted>0</tilted></_>
    <_>
      <rects>
        <_>
          0 14 10 8 -1.</_>
        <_>
          0 14 5 4 2.</_>
        <_>
          5 18 5 4 2.</_></rects>
      <tilted>0</tilted></_>
    <_>
      <rects>
        <_>
          0 15 15 10 -1.</_>
        <_>
          5 15 5 10 3.</_></rects>
      <tilted>0</tilted></_>
    <_>
      <rects>
        <_>
          0 18 6 3 -1.</_>
        <_>
          2 18 2 3 3.</_></rects>
      <tilted>0</tilted></_>
    <_>
      <rects>
        <_>
          0 19 1 10 -1.</_>
        <_>
          0 24 1 5 2.</_></rects>
      <tilted>0</tilted></_>
    <_>
      <rects>
        <_>
          0 19 6 8 -1.</_>
        <_>
          2 19 2 8 3.</_></rects>
      <tilted>0</tilted></_>
    <_>
      <rects>
        <_>
          0 20 2 1 -1.</_>
        <_>
          1 20 1 1 2.</_></rects>
      <tilted>0</tilted></_>
    <_>
      <rects>
        <_>
          0 21 3 3 -1.</_>
        <_>
          0 22 3 1 3.</_></rects>
      <tilted>0</tilted></_>
    <_>
      <rects>
        <_>
          0 21 7 6 -1.</_>
        <_>
          0 23 7 2 3.</_></rects>
      <tilted>0</tilted></_>
    <_>
      <rects>
        <_>
          0 24 2 8 -1.</_>
        <_>
          1 24 1 8 2.</_></rects>
      <tilted>0</tilted></_>
    <_>
      <rects>
        <_>
          0 29 2 3 -1.</_>
        <_>
          1 29 1 3 2.</_></rects>
      <tilted>0</tilted></_>
    <_>
      <rects>
        <_>
          0 29 5 2 -1.</_>
        <_>
          0 30 5 1 2.</_></rects>
      <tilted>0</tilted></_>
    <_>
      <rects>
        <_>
          0 29 12 3 -1.</_>
        <_>
          0 30 12 1 3.</_></rects>
      <tilted>0</tilted></_>
    <_>
      <rects>
        <_>
          1 0 13 32 -1.</_>
        <_>
          1 16 13 16 2.</_></rects>
      <tilted>0</tilted></_>
    <_>
      <rects>
        <_>
          1 1 1 3 -1.</_>
        <_>
          1 2 1 1 3.</_></rects>
      <tilted>0</tilted></_>
    <_>
      <rects>
        <_>
          1 3 12 12 -1.</_>
        <_>
          5 3 4 12 3.</_></rects>
      <tilted>0</tilted></_>
    <_>
      <rects>
        <_>
          1 4 12 10 -1.</_>
        <_>
          1 9 12 5 2.</_></rects>
      <tilted>0</tilted></_>
    <_>
      <rects>
        <_>
          1 7 4 2 -1.</_>
        <_>
          1 7 2 1 2.</_>
        <_>
          3 8 2 1 2.</_></rects>
      <tilted>0</tilted></_>
    <_>
      <rects>
        <_>
          1 14 6 7 -1.</_>
        <_>
          4 14 3 7 2.</_></rects>
      <tilted>0</tilted></_>
    <_>
      <rects>
        <_>
          1 19 12 4 -1.</_>
        <_>
          5 19 4 4 3.</_></rects>
      <tilted>0</tilted></_>
    <_>
      <rects>
        <_>
          1 19 8 10 -1.</_>
        <_>
          1 19 4 5 2.</_>
        <_>
          5 24 4 5 2.</_></rects>
      <tilted>0</tilted></_>
    <_>
      <rects>
        <_>
          1 19 10 8 -1.</_>
        <_>
          1 19 5 4 2.</_>
        <_>
          6 23 5 4 2.</_></rects>
      <tilted>0</tilted></_>
    <_>
      <rects>
        <_>
          1 25 3 2 -1.</_>
        <_>
          1 26 3 1 2.</_></rects>
      <tilted>0</tilted></_>
    <_>
      <rects>
        <_>
          1 25 13 6 -1.</_>
        <_>
          1 27 13 2 3.</_></rects>
      <tilted>0</tilted></_>
    <_>
      <rects>
        <_>
          1 27 6 5 -1.</_>
        <_>
          4 27 3 5 2.</_></rects>
      <tilted>0</tilted></_>
    <_>
      <rects>
        <_>
          2 0 1 9 -1.</_>
        <_>
          2 3 1 3 3.</_></rects>
      <tilted>0</tilted></_>
    <_>
      <rects>
        <_>
          2 1 14 6 -1.</_>
        <_>
          2 4 14 3 2.</_></rects>
      <tilted>0</tilted></_>
    <_>
      <rects>
        <_>
          2 3 4 6 -1.</_>
        <_>
          2 3 2 3 2.</_>
        <_>
          4 6 2 3 2.</_></rects>
      <tilted>0</tilted></_>
    <_>
      <rects>
        <_>
          2 5 2 1 -1.</_>
        <_>
          3 5 1 1 2.</_></rects>
      <tilted>0</tilted></_>
    <_>
      <rects>
        <_>
          2 8 6 13 -1.</_>
        <_>
          4 8 2 13 3.</_></rects>
      <tilted>0</tilted></_>
    <_>
      <rects>
        <_>
          2 9 3 2 -1.</_>
        <_>
          3 9 1 2 3.</_></rects>
      <tilted>0</tilted></_>
    <_>
      <rects>
        <_>
          2 12 4 2 -1.</_>
        <_>
          2 12 2 1 2.</_>
        <_>
          4 13 2 1 2.</_></rects>
      <tilted>0</tilted></_>
    <_>
      <rects>
        <_>
          2 12 6 2 -1.</_>
        <_>
          2 12 3 1 2.</_>
        <_>
          5 13 3 1 2.</_></rects>
      <tilted>0</tilted></_>
    <_>
      <rects>
        <_>
          2 13 6 15 -1.</_>
        <_>
          4 13 2 15 3.</_></rects>
      <tilted>0</tilted></_>
    <_>
      <rects>
        <_>
          2 13 3 3 -1.</_>
        <_>
          2 14 3 1 3.</_></rects>
      <tilted>0</tilted></_>
    <_>
      <rects>
        <_>
          3 0 12 1 -1.</_>
        <_>
          9 0 6 1 2.</_></rects>
      <tilted>0</tilted></_>
    <_>
      <rects>
        <_>
          3 0 12 6 -1.</_>
        <_>
          3 0 6 3 2.</_>
        <_>
          9 3 6 3 2.</_></rects>
      <tilted>0</tilted></_>
    <_>
      <rects>
        <_>
          3 2 12 12 -1.</_>
        <_>
          3 2 6 6 2.</_>
        <_>
          9 8 6 6 2.</_></rects>
      <tilted>0</tilted></_>
    <_>
      <rects>
        <_>
          3 3 2 1 -1.</_>
        <_>
          4 3 1 1 2.</_></rects>
      <tilted>0</tilted></_>
    <_>
      <rects>
        <_>
          3 3 4 16 -1.</_>
        <_>
          3 11 4 8 2.</_></rects>
      <tilted>0</tilted></_>
    <_>
      <rects>
        <_>
          3 4 2 2 -1.</_>
        <_>
          4 4 1 2 2.</_></rects>
      <tilted>0</tilted></_>
    <_>
      <rects>
        <_>
          3 11 3 9 -1.</_>
        <_>
          4 11 1 9 3.</_></rects>
      <tilted>0</tilted></_>
    <_>
      <rects>
        <_>
          3 12 3 4 -1.</_>
        <_>
          4 12 1 4 3.</_></rects>
      <tilted>0</tilted></_>
    <_>
      <rects>
        <_>
          3 14 2 2 -1.</_>
        <_>
          3 15 2 1 2.</_></rects>
      <tilted>0</tilted></_>
    <_>
      <rects>
        <_>
          3 14 12 3 -1.</_>
        <_>
          3 15 12 1 3.</_></rects>
      <tilted>0</tilted></_>
    <_>
      <rects>
        <_>
          3 15 6 4 -1.</_>
        <_>
          5 15 2 4 3.</_></rects>
      <tilted>0</tilted></_>
    <_>
      <rects>
        <_>
          4 1 9 11 -1.</_>
        <_>
          7 1 3 11 3.</_></rects>
      <tilted>0</tilted></_>
    <_>
      <rects>
        <_>
          4 3 12 6 -1.</_>
        <_>
          8 3 4 6 3.</_></rects>
      <tilted>0</tilted></_>
    <_>
      <rects>
        <_>
          4 4 2 2 -1.</_>
        <_>
          5 4 1 2 2.</_></rects>
      <tilted>0</tilted></_>
    <_>
      <rects>
        <_>
          4 5 3 1 -1.</_>
        <_>
          5 5 1 1 3.</_></rects>
      <tilted>0</tilted></_>
    <_>
      <rects>
        <_>
          4 6 2 1 -1.</_>
        <_>
          5 6 1 1 2.</_></rects>
      <tilted>0</tilted></_>
    <_>
      <rects>
        <_>
          4 6 2 6 -1.</_>
        <_>
          4 6 1 3 2.</_>
        <_>
          5 9 1 3 2.</_></rects>
      <tilted>0</tilted></_>
    <_>
      <rects>
        <_>
          4 6 4 1 -1.</_>
        <_>
          6 6 2 1 2.</_></rects>
      <tilted>0</tilted></_>
    <_>
      <rects>
        <_>
          4 7 2 1 -1.</_>
        <_>
          5 7 1 1 2.</_></rects>
      <tilted>0</tilted></_>
    <_>
      <rects>
        <_>
          4 8 2 1 -1.</_>
        <_>
          5 8 1 1 2.</_></rects>
      <tilted>0</tilted></_>
    <_>
      <rects>
        <_>
          4 8 3 2 -1.</_>
        <_>
          4 9 3 1 2.</_></rects>
      <tilted>0</tilted></_>
    <_>
      <rects>
        <_>
          4 10 3 2 -1.</_>
        <_>
          5 10 1 2 3.</_></rects>
      <tilted>0</tilted></_>
    <_>
      <rects>
        <_>
          4 11 3 3 -1.</_>
        <_>
          4 12 3 1 3.</_></rects>
      <tilted>0</tilted></_>
    <_>
      <rects>
        <_>
          4 12 5 4 -1.</_>
        <_>
          4 14 5 2 2.</_></rects>
      <tilted>0</tilted></_>
    <_>
      <rects>
        <_>
          4 16 2 7 -1.</_>
        <_>
          5 16 1 7 2.</_></rects>
      <tilted>0</tilted></_>
    <_>
      <rects>
        <_>
          4 19 5 3 -1.</_>
        <_>
          4 20 5 1 3.</_></rects>
      <tilted>0</tilted></_>
    <_>
      <rects>
        <_>
          5 2 4 2 -1.</_>
        <_>
          7 2 2 2 2.</_></rects>
      <tilted>0</tilted></_>
    <_>
      <rects>
        <_>
          5 5 2 1 -1.</_>
        <_>
          6 5 1 1 2.</_></rects>
      <tilted>0</tilted></_>
    <_>
      <rects>
        <_>
          5 5 6 1 -1.</_>
        <_>
          8 5 3 1 2.</_></rects>
      <tilted>0</tilted></_>
    <_>
      <rects>
        <_>
          5 6 3 7 -1.</_>
        <_>
          6 6 1 7 3.</_></rects>
      <tilted>0</tilted></_>
    <_>
      <rects>
        <_>
          5 7 4 2 -1.</_>
        <_>
          7 7 2 2 2.</_></rects>
      <tilted>0</tilted></_>
    <_>
      <rects>
        <_>
          5 7 4 3 -1.</_>
        <_>
          5 8 4 1 3.</_></rects>
      <tilted>0</tilted></_>
    <_>
      <rects>
        <_>
          5 8 1 2 -1.</_>
        <_>
          5 9 1 1 2.</_></rects>
      <tilted>0</tilted></_>
    <_>
      <rects>
        <_>
          5 9 4 6 -1.</_>
        <_>
          5 9 2 3 2.</_>
        <_>
          7 12 2 3 2.</_></rects>
      <tilted>0</tilted></_>
    <_>
      <rects>
        <_>
          5 9 8 2 -1.</_>
        <_>
          9 9 4 2 2.</_></rects>
      <tilted>0</tilted></_>
    <_>
      <rects>
        <_>
          5 12 11 6 -1.</_>
        <_>
          5 14 11 2 3.</_></rects>
      <tilted>0</tilted></_>
    <_>
      <rects>
        <_>
          5 18 2 2 -1.</_>
        <_>
          6 18 1 2 2.</_></rects>
      <tilted>0</tilted></_>
    <_>
      <rects>
        <_>
          5 20 1 10 -1.</_>
        <_>
          5 25 1 5 2.</_></rects>
      <tilted>0</tilted></_>
    <_>
      <rects>
        <_>
          5 23 4 6 -1.</_>
        <_>
          5 23 2 3 2.</_>
        <_>
          7 26 2 3 2.</_></rects>
      <tilted>0</tilted></_>
    <_>
      <rects>
        <_>
          5 31 3 1 -1.</_>
        <_>
          6 31 1 1 3.</_></rects>
      <tilted>0</tilted></_>
    <_>
      <rects>
        <_>
          6 0 4 30 -1.</_>
        <_>
          6 15 4 15 2.</_></rects>
      <tilted>0</tilted></_>
    <_>
      <rects>
        <_>
          6 0 10 12 -1.</_>
        <_>
          6 4 10 4 3.</_></rects>
      <tilted>0</tilted></_>
    <_>
      <rects>
        <_>
          6 4 9 2 -1.</_>
        <_>
          9 4 3 2 3.</_></rects>
      <tilted>0</tilted></_>
    <_>
      <rects>
        <_>
          6 4 4 4 -1.</_>
        <_>
          6 6 4 2 2.</_></rects>
      <tilted>0</tilted></_>
    <_>
      <rects>
        <_>
          6 4 10 10 -1.</_>
        <_>
          11 4 5 10 2.</_></rects>
      <tilted>0</tilted></_>
    <_>
      <rects>
        <_>
          6 6 2 1 -1.</_>
        <_>
          7 6 1 1 2.</_></rects>
      <tilted>0</tilted></_>
    <_>
      <rects>
        <_>
          6 6 2 3 -1.</_>
        <_>
          7 6 1 3 2.</_></rects>
      <tilted>0</tilted></_>
    <_>
      <rects>
        <_>
          6 6 10 1 -1.</_>
        <_>
          11 6 5 1 2.</_></rects>
      <tilted>0</tilted></_>
    <_>
      <rects>
        <_>
          6 6 5 6 -1.</_>
        <_>
          6 9 5 3 2.</_></rects>
      <tilted>0</tilted></_>
    <_>
      <rects>
        <_>
          6 8 1 2 -1.</_>
        <_>
          6 9 1 1 2.</_></rects>
      <tilted>0</tilted></_>
    <_>
      <rects>
        <_>
          6 10 1 2 -1.</_>
        <_>
          6 11 1 1 2.</_></rects>
      <tilted>0</tilted></_>
    <_>
      <rects>
        <_>
          6 11 3 7 -1.</_>
        <_>
          7 11 1 7 3.</_></rects>
      <tilted>0</tilted></_>
    <_>
      <rects>
        <_>
          7 2 2 2 -1.</_>
        <_>
          7 3 2 1 2.</_></rects>
      <tilted>0</tilted></_>
    <_>
      <rects>
        <_>
          7 3 6 10 -1.</_>
        <_>
          7 3 3 5 2.</_>
        <_>
          10 8 3 5 2.</_></rects>
      <tilted>0</tilted></_>
    <_>
      <rects>
        <_>
          7 5 2 2 -1.</_>
        <_>
          8 5 1 2 2.</_></rects>
      <tilted>0</tilted></_>
    <_>
      <rects>
        <_>
          7 5 6 2 -1.</_>
        <_>
          9 5 2 2 3.</_></rects>
      <tilted>0</tilted></_>
    <_>
      <rects>
        <_>
          7 6 3 1 -1.</_>
        <_>
          8 6 1 1 3.</_></rects>
      <tilted>0</tilted></_>
    <_>
      <rects>
        <_>
          7 6 2 3 -1.</_>
        <_>
          8 6 1 3 2.</_></rects>
      <tilted>0</tilted></_>
    <_>
      <rects>
        <_>
          7 6 6 11 -1.</_>
        <_>
          9 6 2 11 3.</_></rects>
      <tilted>0</tilted></_>
    <_>
      <rects>
        <_>
          7 7 4 1 -1.</_>
        <_>
          9 7 2 1 2.</_></rects>
      <tilted>0</tilted></_>
    <_>
      <rects>
        <_>
          7 7 9 12 -1.</_>
        <_>
          7 11 9 4 3.</_></rects>
      <tilted>0</tilted></_>
    <_>
      <rects>
        <_>
          7 8 2 12 -1.</_>
        <_>
          7 14 2 6 2.</_></rects>
      <tilted>0</tilted></_>
    <_>
      <rects>
        <_>
          7 9 5 15 -1.</_>
        <_>
          7 14 5 5 3.</_></rects>
      <tilted>0</tilted></_>
    <_>
      <rects>
        <_>
          7 9 6 3 -1.</_>
        <_>
          7 10 6 1 3.</_></rects>
      <tilted>0</tilted></_>
    <_>
      <rects>
        <_>
          7 10 7 12 -1.</_>
        <_>
          7 14 7 4 3.</_></rects>
      <tilted>0</tilted></_>
    <_>
      <rects>
        <_>
          7 14 1 12 -1.</_>
        <_>
          7 18 1 4 3.</_></rects>
      <tilted>0</tilted></_>
    <_>
      <rects>
        <_>
          7 16 3 12 -1.</_>
        <_>
          7 20 3 4 3.</_></rects>
      <tilted>0</tilted></_>
    <_>
      <rects>
        <_>
          7 16 9 10 -1.</_>
        <_>
          10 16 3 10 3.</_></rects>
      <tilted>0</tilted></_>
    <_>
      <rects>
        <_>
          7 19 8 6 -1.</_>
        <_>
          7 19 4 3 2.</_>
        <_>
          11 22 4 3 2.</_></rects>
      <tilted>0</tilted></_>
    <_>
      <rects>
        <_>
          7 26 2 1 -1.</_>
        <_>
          8 26 1 1 2.</_></rects>
      <tilted>0</tilted></_>
    <_>
      <rects>
        <_>
          8 1 3 2 -1.</_>
        <_>
          9 1 1 2 3.</_></rects>
      <tilted>0</tilted></_>
    <_>
      <rects>
        <_>
          8 1 8 3 -1.</_>
        <_>
          8 2 8 1 3.</_></rects>
      <tilted>0</tilted></_>
    <_>
      <rects>
        <_>
          8 2 1 20 -1.</_>
        <_>
          8 12 1 10 2.</_></rects>
      <tilted>0</tilted></_>
    <_>
      <rects>
        <_>
          8 3 7 9 -1.</_>
        <_>
          8 6 7 3 3.</_></rects>
      <tilted>0</tilted></_>
    <_>
      <rects>
        <_>
          8 4 2 2 -1.</_>
        <_>
          8 4 1 1 2.</_>
        <_>
          9 5 1 1 2.</_></rects>
      <tilted>0</tilted></_>
    <_>
      <rects>
        <_>
          8 4 2 2 -1.</_>
        <_>
          8 5 2 1 2.</_></rects>
      <tilted>0</tilted></_>
    <_>
      <rects>
        <_>
          8 5 2 1 -1.</_>
        <_>
          9 5 1 1 2.</_></rects>
      <tilted>0</tilted></_>
    <_>
      <rects>
        <_>
          8 5 4 3 -1.</_>
        <_>
          8 6 4 1 3.</_></rects>
      <tilted>0</tilted></_>
    <_>
      <rects>
        <_>
          8 6 3 2 -1.</_>
        <_>
          8 7 3 1 2.</_></rects>
      <tilted>0</tilted></_>
    <_>
      <rects>
        <_>
          8 7 3 1 -1.</_>
        <_>
          9 7 1 1 3.</_></rects>
      <tilted>0</tilted></_>
    <_>
      <rects>
        <_>
          8 7 8 17 -1.</_>
        <_>
          12 7 4 17 2.</_></rects>
      <tilted>0</tilted></_>
    <_>
      <rects>
        <_>
          8 8 2 6 -1.</_>
        <_>
          8 8 1 3 2.</_>
        <_>
          9 11 1 3 2.</_></rects>
      <tilted>0</tilted></_>
    <_>
      <rects>
        <_>
          8 10 6 2 -1.</_>
        <_>
          10 10 2 2 3.</_></rects>
      <tilted>0</tilted></_>
    <_>
      <rects>
        <_>
          8 10 6 4 -1.</_>
        <_>
          8 10 3 2 2.</_>
        <_>
          11 12 3 2 2.</_></rects>
      <tilted>0</tilted></_>
    <_>
      <rects>
        <_>
          8 11 4 18 -1.</_>
        <_>
          8 17 4 6 3.</_></rects>
      <tilted>0</tilted></_>
    <_>
      <rects>
        <_>
          8 11 6 6 -1.</_>
        <_>
          8 14 6 3 2.</_></rects>
      <tilted>0</tilted></_>
    <_>
      <rects>
        <_>
          8 17 8 10 -1.</_>
        <_>
          12 17 4 10 2.</_></rects>
      <tilted>0</tilted></_>
    <_>
      <rects>
        <_>
          8 21 2 1 -1.</_>
        <_>
          9 21 1 1 2.</_></rects>
      <tilted>0</tilted></_>
    <_>
      <rects>
        <_>
          8 21 8 11 -1.</_>
        <_>
          12 21 4 11 2.</_></rects>
      <tilted>0</tilted></_>
    <_>
      <rects>
        <_>
          9 0 3 16 -1.</_>
        <_>
          10 0 1 16 3.</_></rects>
      <tilted>0</tilted></_>
    <_>
      <rects>
        <_>
          9 0 6 23 -1.</_>
        <_>
          12 0 3 23 2.</_></rects>
      <tilted>0</tilted></_>
    <_>
      <rects>
        <_>
          9 2 5 9 -1.</_>
        <_>
          9 5 5 3 3.</_></rects>
      <tilted>0</tilted></_>
    <_>
      <rects>
        <_>
          9 5 2 3 -1.</_>
        <_>
          9 6 2 1 3.</_></rects>
      <tilted>0</tilted></_>
    <_>
      <rects>
        <_>
          9 6 3 1 -1.</_>
        <_>
          10 6 1 1 3.</_></rects>
      <tilted>0</tilted></_>
    <_>
      <rects>
        <_>
          9 9 4 2 -1.</_>
        <_>
          9 9 2 1 2.</_>
        <_>
          11 10 2 1 2.</_></rects>
      <tilted>0</tilted></_>
    <_>
      <rects>
        <_>
          9 11 3 6 -1.</_>
        <_>
          10 11 1 6 3.</_></rects>
      <tilted>0</tilted></_>
    <_>
      <rects>
        <_>
          9 15 3 6 -1.</_>
        <_>
          9 17 3 2 3.</_></rects>
      <tilted>0</tilted></_>
    <_>
      <rects>
        <_>
          10 0 2 9 -1.</_>
        <_>
          10 3 2 3 3.</_></rects>
      <tilted>0</tilted></_>
    <_>
      <rects>
        <_>
          10 0 6 1 -1.</_>
        <_>
          13 0 3 1 2.</_></rects>
      <tilted>0</tilted></_>
    <_>
      <rects>
        <_>
          10 2 6 4 -1.</_>
        <_>
          13 2 3 4 2.</_></rects>
      <tilted>0</tilted></_>
    <_>
      <rects>
        <_>
          10 5 2 1 -1.</_>
        <_>
          11 5 1 1 2.</_></rects>
      <tilted>0</tilted></_>
    <_>
      <rects>
        <_>
          10 5 1 2 -1.</_>
        <_>
          10 6 1 1 2.</_></rects>
      <tilted>0</tilted></_>
    <_>
      <rects>
        <_>
          10 5 6 27 -1.</_>
        <_>
          13 5 3 27 2.</_></rects>
      <tilted>0</tilted></_>
    <_>
      <rects>
        <_>
          10 5 6 9 -1.</_>
        <_>
          10 8 6 3 3.</_></rects>
      <tilted>0</tilted></_>
    <_>
      <rects>
        <_>
          10 6 2 1 -1.</_>
        <_>
          11 6 1 1 2.</_></rects>
      <tilted>0</tilted></_>
    <_>
      <rects>
        <_>
          10 7 3 14 -1.</_>
        <_>
          11 7 1 14 3.</_></rects>
      <tilted>0</tilted></_>
    <_>
      <rects>
        <_>
          10 7 6 2 -1.</_>
        <_>
          12 7 2 2 3.</_></rects>
      <tilted>0</tilted></_>
    <_>
      <rects>
        <_>
          10 8 3 8 -1.</_>
        <_>
          11 8 1 8 3.</_></rects>
      <tilted>0</tilted></_>
    <_>
      <rects>
        <_>
          10 8 3 13 -1.</_>
        <_>
          11 8 1 13 3.</_></rects>
      <tilted>0</tilted></_>
    <_>
      <rects>
        <_>
          10 9 6 9 -1.</_>
        <_>
          13 9 3 9 2.</_></rects>
      <tilted>0</tilted></_>
    <_>
      <rects>
        <_>
          10 10 1 2 -1.</_>
        <_>
          10 11 1 1 2.</_></rects>
      <tilted>0</tilted></_>
    <_>
      <rects>
        <_>
          10 12 6 18 -1.</_>
        <_>
          13 12 3 18 2.</_></rects>
      <tilted>0</tilted></_>
    <_>
      <rects>
        <_>
          10 15 1 12 -1.</_>
        <_>
          10 21 1 6 2.</_></rects>
      <tilted>0</tilted></_>
    <_>
      <rects>
        <_>
          10 18 3 1 -1.</_>
        <_>
          11 18 1 1 3.</_></rects>
      <tilted>0</tilted></_>
    <_>
      <rects>
        <_>
          10 28 3 2 -1.</_>
        <_>
          11 28 1 2 3.</_></rects>
      <tilted>0</tilted></_>
    <_>
      <rects>
        <_>
          10 28 4 3 -1.</_>
        <_>
          10 29 4 1 3.</_></rects>
      <tilted>0</tilted></_>
    <_>
      <rects>
        <_>
          11 0 1 2 -1.</_>
        <_>
          11 1 1 1 2.</_></rects>
      <tilted>0</tilted></_>
    <_>
      <rects>
        <_>
          11 7 3 7 -1.</_>
        <_>
          12 7 1 7 3.</_></rects>
      <tilted>0</tilted></_>
    <_>
      <rects>
        <_>
          11 8 3 24 -1.</_>
        <_>
          11 20 3 12 2.</_></rects>
      <tilted>0</tilted></_>
    <_>
      <rects>
        <_>
          11 9 2 6 -1.</_>
        <_>
          11 9 1 3 2.</_>
        <_>
          12 12 1 3 2.</_></rects>
      <tilted>0</tilted></_>
    <_>
      <rects>
        <_>
          11 9 3 10 -1.</_>
        <_>
          12 9 1 10 3.</_></rects>
      <tilted>0</tilted></_>
    <_>
      <rects>
        <_>
          11 10 3 4 -1.</_>
        <_>
          12 10 1 4 3.</_></rects>
      <tilted>0</tilted></_>
    <_>
      <rects>
        <_>
          11 10 5 6 -1.</_>
        <_>
          11 12 5 2 3.</_></rects>
      <tilted>0</tilted></_>
    <_>
      <rects>
        <_>
          11 26 1 6 -1.</_>
        <_>
          11 28 1 2 3.</_></rects>
      <tilted>0</tilted></_>
    <_>
      <rects>
        <_>
          11 30 3 2 -1.</_>
        <_>
          12 30 1 2 3.</_></rects>
      <tilted>0</tilted></_>
    <_>
      <rects>
        <_>
          12 0 2 12 -1.</_>
        <_>
          12 4 2 4 3.</_></rects>
      <tilted>0</tilted></_>
    <_>
      <rects>
        <_>
          12 3 2 6 -1.</_>
        <_>
          12 3 1 3 2.</_>
        <_>
          13 6 1 3 2.</_></rects>
      <tilted>0</tilted></_>
    <_>
      <rects>
        <_>
          12 6 2 8 -1.</_>
        <_>
          12 6 1 4 2.</_>
        <_>
          13 10 1 4 2.</_></rects>
      <tilted>0</tilted></_>
    <_>
      <rects>
        <_>
          12 7 3 10 -1.</_>
        <_>
          13 7 1 10 3.</_></rects>
      <tilted>0</tilted></_>
    <_>
      <rects>
        <_>
          12 8 2 10 -1.</_>
        <_>
          12 8 1 5 2.</_>
        <_>
          13 13 1 5 2.</_></rects>
      <tilted>0</tilted></_>
    <_>
      <rects>
        <_>
          12 9 2 6 -1.</_>
        <_>
          12 11 2 2 3.</_></rects>
      <tilted>0</tilted></_>
    <_>
      <rects>
        <_>
          12 11 1 6 -1.</_>
        <_>
          12 13 1 2 3.</_></rects>
      <tilted>0</tilted></_>
    <_>
      <rects>
        <_>
          12 12 3 2 -1.</_>
        <_>
          13 12 1 2 3.</_></rects>
      <tilted>0</tilted></_>
    <_>
      <rects>
        <_>
          12 24 2 5 -1.</_>
        <_>
          13 24 1 5 2.</_></rects>
      <tilted>0</tilted></_>
    <_>
      <rects>
        <_>
          12 25 2 3 -1.</_>
        <_>
          13 25 1 3 2.</_></rects>
      <tilted>0</tilted></_>
    <_>
      <rects>
        <_>
          13 6 2 8 -1.</_>
        <_>
          13 6 1 4 2.</_>
        <_>
          14 10 1 4 2.</_></rects>
      <tilted>0</tilted></_>
    <_>
      <rects>
        <_>
          13 13 2 4 -1.</_>
        <_>
          13 13 1 2 2.</_>
        <_>
          14 15 1 2 2.</_></rects>
      <tilted>0</tilted></_>
    <_>
      <rects>
        <_>
          13 24 3 3 -1.</_>
        <_>
          13 25 3 1 3.</_></rects>
      <tilted>0</tilted></_>
    <_>
      <rects>
        <_>
          14 9 2 6 -1.</_>
        <_>
          14 9 1 3 2.</_>
        <_>
          15 12 1 3 2.</_></rects>
      <tilted>0</tilted></_>
    <_>
      <rects>
        <_>
          14 24 2 8 -1.</_>
        <_>
          15 24 1 8 2.</_></rects>
      <tilted>0</tilted></_>
    <_>
      <rects>
        <_>
          14 25 2 5 -1.</_>
        <_>
          15 25 1 5 2.</_></rects>
      <tilted>0</tilted></_>
    <_>
      <rects>
        <_>
          15 4 1 27 -1.</_>
        <_>
          15 13 1 9 3.</_></rects>
      <tilted>0</tilted></_>
    <_>
      <rects>
        <_>
          15 6 1 3 -1.</_>
        <_>
          15 7 1 1 3.</_></rects>
      <tilted>0</tilted></_></features></cascade>
</opencv_storage>
