<?xml version="1.0"?>
<opencv_storage>
<stage16>
  <maxWeakCount>6</maxWeakCount>
  <stageThreshold>-2.0086336135864258e-01</stageThreshold>
  <weakClassifiers>
    <_>
      <internalNodes>
        0 -1 98835 1.8728988652583212e-04</internalNodes>
      <leafValues>
        6.8152868747711182e-01 -3.2530120015144348e-01</leafValues></_>
    <_>
      <internalNodes>
        0 -1 1031 4.8455465584993362e-03</internalNodes>
      <leafValues>
        -2.1978111565113068e-01 7.7607202529907227e-01</leafValues></_>
    <_>
      <internalNodes>
        0 -1 13114 -1.1995164677500725e-02</internalNodes>
      <leafValues>
        8.6675131320953369e-01 -2.2303730249404907e-01</leafValues></_>
    <_>
      <internalNodes>
        0 -1 52463 -1.3275452889502048e-02</internalNodes>
      <leafValues>
        8.0022335052490234e-01 -2.3798725008964539e-01</leafValues></_>
    <_>
      <internalNodes>
        0 -1 97823 -6.1661517247557640e-03</internalNodes>
      <leafValues>
        4.8379501700401306e-01 -4.8538962006568909e-01</leafValues></_>
    <_>
      <internalNodes>
        0 -1 97868 1.0716656834119931e-04</internalNodes>
      <leafValues>
        3.6862975358963013e-01 -6.8538141250610352e-01</leafValues></_></weakClassifiers></stage16>
</opencv_storage>
