<?xml version="1.0"?>
<opencv_storage>
<stage28>
  <maxWeakCount>9</maxWeakCount>
  <stageThreshold>-4.1533023118972778e-01</stageThreshold>
  <weakClassifiers>
    <_>
      <internalNodes>
        0 -1 81168 -8.1908852735068649e-05</internalNodes>
      <leafValues>
        -3.9130434393882751e-01 5.0515460968017578e-01</leafValues></_>
    <_>
      <internalNodes>
        0 -1 72162 -6.6057327785529196e-05</internalNodes>
      <leafValues>
        4.3036562204360962e-01 -3.7112399935722351e-01</leafValues></_>
    <_>
      <internalNodes>
        0 -1 91992 -2.5848704390227795e-03</internalNodes>
      <leafValues>
        6.9801467657089233e-01 -2.2560636699199677e-01</leafValues></_>
    <_>
      <internalNodes>
        0 -1 102148 9.0826138854026794e-02</internalNodes>
      <leafValues>
        -2.7904182672500610e-01 5.8919835090637207e-01</leafValues></_>
    <_>
      <internalNodes>
        0 -1 678 -8.3995740860700607e-03</internalNodes>
      <leafValues>
        -7.7084332704544067e-01 2.7560496330261230e-01</leafValues></_>
    <_>
      <internalNodes>
        0 -1 121450 2.7104485780000687e-03</internalNodes>
      <leafValues>
        -3.0509203672409058e-01 7.7684932947158813e-01</leafValues></_>
    <_>
      <internalNodes>
        0 -1 83425 -1.8824313301593065e-03</internalNodes>
      <leafValues>
        8.4085828065872192e-01 -1.9113278388977051e-01</leafValues></_>
    <_>
      <internalNodes>
        0 -1 71209 -3.1228815205395222e-03</internalNodes>
      <leafValues>
        7.5641775131225586e-01 -2.4824367463588715e-01</leafValues></_>
    <_>
      <internalNodes>
        0 -1 115887 -1.0839444585144520e-03</internalNodes>
      <leafValues>
        8.3615469932556152e-01 -1.9913063943386078e-01</leafValues></_></weakClassifiers></stage28>
</opencv_storage>
