<?xml version="1.0"?>
<opencv_storage>
<stage23>
  <maxWeakCount>7</maxWeakCount>
  <stageThreshold>-8.3942756056785583e-02</stageThreshold>
  <weakClassifiers>
    <_>
      <internalNodes>
        0 -1 80523 8.0069832503795624e-02</internalNodes>
      <leafValues>
        -7.1942447684705257e-03 8.0198019742965698e-01</leafValues></_>
    <_>
      <internalNodes>
        0 -1 38429 -3.8047714624553919e-03</internalNodes>
      <leafValues>
        8.6784338951110840e-01 -1.3124810159206390e-01</leafValues></_>
    <_>
      <internalNodes>
        0 -1 77108 -4.3487413786351681e-03</internalNodes>
      <leafValues>
        7.2962778806686401e-01 -2.0254556834697723e-01</leafValues></_>
    <_>
      <internalNodes>
        0 -1 114292 1.0324149479856715e-04</internalNodes>
      <leafValues>
        5.4942238330841064e-01 -2.9512435197830200e-01</leafValues></_>
    <_>
      <internalNodes>
        0 -1 56858 1.1861737817525864e-02</internalNodes>
      <leafValues>
        3.1340929865837097e-01 -6.3874620199203491e-01</leafValues></_>
    <_>
      <internalNodes>
        0 -1 30104 -7.2736516594886780e-03</internalNodes>
      <leafValues>
        8.8948398828506470e-01 -2.3202669620513916e-01</leafValues></_>
    <_>
      <internalNodes>
        0 -1 15576 -2.0701773464679718e-03</internalNodes>
      <leafValues>
        7.1238797903060913e-01 -2.3077873885631561e-01</leafValues></_></weakClassifiers></stage23>
</opencv_storage>
