<?xml version="1.0"?>
<opencv_storage>
<stage26>
  <maxWeakCount>9</maxWeakCount>
  <stageThreshold>-4.2977419495582581e-01</stageThreshold>
  <weakClassifiers>
    <_>
      <internalNodes>
        0 -1 25642 -5.3674664348363876e-02</internalNodes>
      <leafValues>
        8.4090906381607056e-01 3.9473682641983032e-02</leafValues></_>
    <_>
      <internalNodes>
        0 -1 61046 7.8354445577133447e-05</internalNodes>
      <leafValues>
        -2.8061667084693909e-01 5.4237896203994751e-01</leafValues></_>
    <_>
      <internalNodes>
        0 -1 16537 -1.3198217493481934e-04</internalNodes>
      <leafValues>
        -5.0772452354431152e-01 3.4940949082374573e-01</leafValues></_>
    <_>
      <internalNodes>
        0 -1 112409 -2.6474208571016788e-03</internalNodes>
      <leafValues>
        7.4304723739624023e-01 -3.2459914684295654e-01</leafValues></_>
    <_>
      <internalNodes>
        0 -1 61207 -4.6730350004509091e-04</internalNodes>
      <leafValues>
        6.1231553554534912e-01 -2.8674173355102539e-01</leafValues></_>
    <_>
      <internalNodes>
        0 -1 13855 -3.6425283178687096e-04</internalNodes>
      <leafValues>
        6.2400972843170166e-01 -3.1127345561981201e-01</leafValues></_>
    <_>
      <internalNodes>
        0 -1 15513 6.2763586174696684e-04</internalNodes>
      <leafValues>
        2.6475161314010620e-01 -8.4119188785552979e-01</leafValues></_>
    <_>
      <internalNodes>
        0 -1 62117 -1.7772521823644638e-03</internalNodes>
      <leafValues>
        8.6984318494796753e-01 -2.6573058962821960e-01</leafValues></_>
    <_>
      <internalNodes>
        0 -1 126375 -5.2411021897569299e-05</internalNodes>
      <leafValues>
        5.5657655000686646e-01 -3.8174444437026978e-01</leafValues></_></weakClassifiers></stage26>
</opencv_storage>
