<?xml version="1.0"?>
<opencv_storage>
<stage8>
  <maxWeakCount>7</maxWeakCount>
  <stageThreshold>-4.9848246574401855e-01</stageThreshold>
  <weakClassifiers>
    <_>
      <internalNodes>
        0 -1 6319 -6.6553547978401184e-02</internalNodes>
      <leafValues>
        7.9562044143676758e-01 -2.8155338764190674e-01</leafValues></_>
    <_>
      <internalNodes>
        0 -1 81178 1.7901846149470657e-05</internalNodes>
      <leafValues>
        -4.4646757841110229e-01 6.0033148527145386e-01</leafValues></_>
    <_>
      <internalNodes>
        0 -1 112379 -3.7886188365519047e-03</internalNodes>
      <leafValues>
        6.6644477844238281e-01 -3.1775978207588196e-01</leafValues></_>
    <_>
      <internalNodes>
        0 -1 78248 -1.9811755046248436e-02</internalNodes>
      <leafValues>
        3.8332626223564148e-01 -6.7363035678863525e-01</leafValues></_>
    <_>
      <internalNodes>
        0 -1 88716 -4.6673166798427701e-04</internalNodes>
      <leafValues>
        -6.0072088241577148e-01 3.9718350768089294e-01</leafValues></_>
    <_>
      <internalNodes>
        0 -1 36110 -1.0378286242485046e-02</internalNodes>
      <leafValues>
        5.0936925411224365e-01 -4.6724855899810791e-01</leafValues></_>
    <_>
      <internalNodes>
        0 -1 98514 5.6394911371171474e-04</internalNodes>
      <leafValues>
        3.0678912997245789e-01 -7.7948397397994995e-01</leafValues></_></weakClassifiers></stage8>
</opencv_storage>
