<?xml version="1.0"?>
<opencv_storage>
<stage17>
  <maxWeakCount>8</maxWeakCount>
  <stageThreshold>-2.6940223574638367e-01</stageThreshold>
  <weakClassifiers>
    <_>
      <internalNodes>
        0 -1 70832 1.5400553820654750e-03</internalNodes>
      <leafValues>
        5.8426964282989502e-01 -3.8709676265716553e-01</leafValues></_>
    <_>
      <internalNodes>
        0 -1 18566 -3.7018589675426483e-02</internalNodes>
      <leafValues>
        4.7414490580558777e-01 -4.9800205230712891e-01</leafValues></_>
    <_>
      <internalNodes>
        0 -1 38922 -4.2579296976327896e-02</internalNodes>
      <leafValues>
        7.0805698633193970e-01 -2.6460438966751099e-01</leafValues></_>
    <_>
      <internalNodes>
        0 -1 38934 1.5700997319072485e-03</internalNodes>
      <leafValues>
        -2.1457557380199432e-01 7.2857689857482910e-01</leafValues></_>
    <_>
      <internalNodes>
        0 -1 21345 7.0361245889216661e-04</internalNodes>
      <leafValues>
        -1.9685313105583191e-01 8.2320225238800049e-01</leafValues></_>
    <_>
      <internalNodes>
        0 -1 36608 -1.8734566401690245e-03</internalNodes>
      <leafValues>
        6.8570643663406372e-01 -2.5872096419334412e-01</leafValues></_>
    <_>
      <internalNodes>
        0 -1 102877 5.5121048353612423e-03</internalNodes>
      <leafValues>
        -5.6270217895507813e-01 3.6321011185646057e-01</leafValues></_>
    <_>
      <internalNodes>
        0 -1 80336 3.4737768582999706e-03</internalNodes>
      <leafValues>
        2.9801025986671448e-01 -7.2984820604324341e-01</leafValues></_></weakClassifiers></stage17>
</opencv_storage>
