<?xml version="1.0"?>
<opencv_storage>
<stage24>
  <maxWeakCount>8</maxWeakCount>
  <stageThreshold>-1.2194324284791946e-01</stageThreshold>
  <weakClassifiers>
    <_>
      <internalNodes>
        0 -1 102760 2.5692855706438422e-04</internalNodes>
      <leafValues>
        5.8823531866073608e-01 -2.8571429848670959e-01</leafValues></_>
    <_>
      <internalNodes>
        0 -1 7 -5.5254518520087004e-04</internalNodes>
      <leafValues>
        -6.8872523307800293e-01 3.1835299730300903e-01</leafValues></_>
    <_>
      <internalNodes>
        0 -1 122055 8.2376347854733467e-03</internalNodes>
      <leafValues>
        -3.0772683024406433e-01 7.2502332925796509e-01</leafValues></_>
    <_>
      <internalNodes>
        0 -1 112008 4.2522221803665161e-02</internalNodes>
      <leafValues>
        -2.7874195575714111e-01 8.0742555856704712e-01</leafValues></_>
    <_>
      <internalNodes>
        0 -1 1378 -5.0828332314267755e-04</internalNodes>
      <leafValues>
        5.1011365652084351e-01 -3.7441056966781616e-01</leafValues></_>
    <_>
      <internalNodes>
        0 -1 108331 -1.5356630319729447e-04</internalNodes>
      <leafValues>
        4.5011949539184570e-01 -4.9420341849327087e-01</leafValues></_>
    <_>
      <internalNodes>
        0 -1 106806 -8.7425298988819122e-04</internalNodes>
      <leafValues>
        8.1046295166015625e-01 -2.5232318043708801e-01</leafValues></_>
    <_>
      <internalNodes>
        0 -1 12685 1.6551319509744644e-02</internalNodes>
      <leafValues>
        -2.0564979314804077e-01 8.9816421270370483e-01</leafValues></_></weakClassifiers></stage24>
</opencv_storage>
