<?xml version="1.0"?>
<opencv_storage>
<cascade>
  <stageType>BOOST</stageType>
  <featureType>HAAR</featureType>
  <height>32</height>
  <width>32</width>
  <stageParams>
    <boostType>GAB</boostType>
    <minHitRate>9.9500000476837158e-01</minHitRate>
    <maxFalseAlarm>5.0000000000000000e-01</maxFalseAlarm>
    <weightTrimRate>9.4999999999999996e-01</weightTrimRate>
    <maxDepth>1</maxDepth>
    <maxWeakCount>100</maxWeakCount></stageParams>
  <featureParams>
    <maxCatCount>0</maxCatCount>
    <featSize>1</featSize>
    <mode>BASIC</mode></featureParams>
  <stageNum>25</stageNum>
  <stages>
    <!-- stage 0 -->
    <_>
      <maxWeakCount>2</maxWeakCount>
      <stageThreshold>2.4659305810928345e-02</stageThreshold>
      <weakClassifiers>
        <_>
          <internalNodes>
            0 -1 6 1.1624079942703247e-01</internalNodes>
          <leafValues>
            -9.5999997854232788e-01 9.9000000953674316e-01</leafValues></_>
        <_>
          <internalNodes>
            0 -1 12 1.8114079535007477e-01</internalNodes>
          <leafValues>
            -9.6534067392349243e-01 9.8999845981597900e-01</leafValues></_></weakClassifiers></_>
    <!-- stage 1 -->
    <_>
      <maxWeakCount>2</maxWeakCount>
      <stageThreshold>2.3598263040184975e-02</stageThreshold>
      <weakClassifiers>
        <_>
          <internalNodes>
            0 -1 27 1.0887562297284603e-02</internalNodes>
          <leafValues>
            -8.8461536169052124e-01 9.8989897966384888e-01</leafValues></_>
        <_>
          <internalNodes>
            0 -1 38 -4.5048240572214127e-03</internalNodes>
          <leafValues>
            9.6954506635665894e-01 -9.6630072593688965e-01</leafValues></_></weakClassifiers></_>
    <!-- stage 2 -->
    <_>
      <maxWeakCount>2</maxWeakCount>
      <stageThreshold>7.9560428857803345e-02</stageThreshold>
      <weakClassifiers>
        <_>
          <internalNodes>
            0 -1 11 1.1243735253810883e-01</internalNodes>
          <leafValues>
            -8.7999999523162842e-01 9.7000002861022949e-01</leafValues></_>
        <_>
          <internalNodes>
            0 -1 29 5.7200402021408081e-02</internalNodes>
          <leafValues>
            -8.8877415657043457e-01 9.5956045389175415e-01</leafValues></_></weakClassifiers></_>
    <!-- stage 3 -->
    <_>
      <maxWeakCount>2</maxWeakCount>
      <stageThreshold>4.4788919389247894e-02</stageThreshold>
      <weakClassifiers>
        <_>
          <internalNodes>
            0 -1 7 1.0995496809482574e-01</internalNodes>
          <leafValues>
            -8.8461536169052124e-01 9.8989897966384888e-01</leafValues></_>
        <_>
          <internalNodes>
            0 -1 41 8.8810436427593231e-02</internalNodes>
          <leafValues>
            -8.6184114217758179e-01 9.2940431833267212e-01</leafValues></_></weakClassifiers></_>
    <!-- stage 4 -->
    <_>
      <maxWeakCount>2</maxWeakCount>
      <stageThreshold>1.4328980445861816e-01</stageThreshold>
      <weakClassifiers>
        <_>
          <internalNodes>
            0 -1 31 -1.2100102379918098e-02</internalNodes>
          <leafValues>
            9.7948718070983887e-01 -7.4545454978942871e-01</leafValues></_>
        <_>
          <internalNodes>
            0 -1 22 3.2880753278732300e-02</internalNodes>
          <leafValues>
            -8.3619737625122070e-01 9.3515890836715698e-01</leafValues></_></weakClassifiers></_>
    <!-- stage 5 -->
    <_>
      <maxWeakCount>2</maxWeakCount>
      <stageThreshold>9.4755709171295166e-02</stageThreshold>
      <weakClassifiers>
        <_>
          <internalNodes>
            0 -1 40 -1.2503735721111298e-02</internalNodes>
          <leafValues>
            9.1262137889862061e-01 -8.6363637447357178e-01</leafValues></_>
        <_>
          <internalNodes>
            0 -1 15 1.0976758599281311e-01</internalNodes>
          <leafValues>
            -6.9560313224792480e-01 9.5839208364486694e-01</leafValues></_></weakClassifiers></_>
    <!-- stage 6 -->
    <_>
      <maxWeakCount>3</maxWeakCount>
      <stageThreshold>-4.3105235695838928e-01</stageThreshold>
      <weakClassifiers>
        <_>
          <internalNodes>
            0 -1 2 7.8575059771537781e-02</internalNodes>
          <leafValues>
            -6.4285713434219360e-01 9.5876288414001465e-01</leafValues></_>
        <_>
          <internalNodes>
            0 -1 50 5.9418488293886185e-02</internalNodes>
          <leafValues>
            -6.9164371490478516e-01 9.2932790517807007e-01</leafValues></_>
        <_>
          <internalNodes>
            0 -1 5 1.7279031872749329e-01</internalNodes>
          <leafValues>
            -6.9245636463165283e-01 9.0344852209091187e-01</leafValues></_></weakClassifiers></_>
    <!-- stage 7 -->
    <_>
      <maxWeakCount>2</maxWeakCount>
      <stageThreshold>1.1740552634000778e-01</stageThreshold>
      <weakClassifiers>
        <_>
          <internalNodes>
            0 -1 42 5.4409485310316086e-03</internalNodes>
          <leafValues>
            -8.0000001192092896e-01 9.4999998807907104e-01</leafValues></_>
        <_>
          <internalNodes>
            0 -1 44 -1.0113580524921417e-01</internalNodes>
          <leafValues>
            9.1740554571151733e-01 -8.1046545505523682e-01</leafValues></_></weakClassifiers></_>
    <!-- stage 8 -->
    <_>
      <maxWeakCount>3</maxWeakCount>
      <stageThreshold>-5.2875280380249023e-01</stageThreshold>
      <weakClassifiers>
        <_>
          <internalNodes>
            0 -1 19 1.5531892888247967e-02</internalNodes>
          <leafValues>
            -7.1428573131561279e-01 9.2039799690246582e-01</leafValues></_>
        <_>
          <internalNodes>
            0 -1 37 3.5510271787643433e-02</internalNodes>
          <leafValues>
            -6.9354474544525146e-01 9.3270665407180786e-01</leafValues></_>
        <_>
          <internalNodes>
            0 -1 14 1.4053283259272575e-02</internalNodes>
          <leafValues>
            -7.4717372655868530e-01 9.0333235263824463e-01</leafValues></_></weakClassifiers></_>
    <!-- stage 9 -->
    <_>
      <maxWeakCount>2</maxWeakCount>
      <stageThreshold>-2.4246398359537125e-02</stageThreshold>
      <weakClassifiers>
        <_>
          <internalNodes>
            0 -1 21 1.3664383441209793e-02</internalNodes>
          <leafValues>
            -6.3636362552642822e-01 9.4871795177459717e-01</leafValues></_>
        <_>
          <internalNodes>
            0 -1 52 -4.4287031050771475e-04</internalNodes>
          <leafValues>
            -9.7296434640884399e-01 8.3158010244369507e-01</leafValues></_></weakClassifiers></_>
    <!-- stage 10 -->
    <_>
      <maxWeakCount>2</maxWeakCount>
      <stageThreshold>2.1899333596229553e-01</stageThreshold>
      <weakClassifiers>
        <_>
          <internalNodes>
            0 -1 9 -2.7918774634599686e-02</internalNodes>
          <leafValues>
            9.1878169775009155e-01 -5.8490568399429321e-01</leafValues></_>
        <_>
          <internalNodes>
            0 -1 47 1.3045048341155052e-02</internalNodes>
          <leafValues>
            -6.9978839159011841e-01 9.3861097097396851e-01</leafValues></_></weakClassifiers></_>
    <!-- stage 11 -->
    <_>
      <maxWeakCount>3</maxWeakCount>
      <stageThreshold>-4.6722081303596497e-01</stageThreshold>
      <weakClassifiers>
        <_>
          <internalNodes>
            0 -1 33 1.1729983985424042e-01</internalNodes>
          <leafValues>
            -5.1724135875701904e-01 9.3750000000000000e-01</leafValues></_>
        <_>
          <internalNodes>
            0 -1 25 3.0704429373145103e-03</internalNodes>
          <leafValues>
            -5.5908024311065674e-01 8.8266253471374512e-01</leafValues></_>
        <_>
          <internalNodes>
            0 -1 16 -2.2512502968311310e-02</internalNodes>
          <leafValues>
            7.4222129583358765e-01 -8.4564059972763062e-01</leafValues></_></weakClassifiers></_>
    <!-- stage 12 -->
    <_>
      <maxWeakCount>3</maxWeakCount>
      <stageThreshold>-5.2378624677658081e-01</stageThreshold>
      <weakClassifiers>
        <_>
          <internalNodes>
            0 -1 36 -7.3428284376859665e-03</internalNodes>
          <leafValues>
            9.5789474248886108e-01 -5.3333336114883423e-01</leafValues></_>
        <_>
          <internalNodes>
            0 -1 0 1.1498406529426575e-01</internalNodes>
          <leafValues>
            -8.3788120746612549e-01 8.1621891260147095e-01</leafValues></_>
        <_>
          <internalNodes>
            0 -1 35 -7.1377996355295181e-03</internalNodes>
          <leafValues>
            8.4742826223373413e-01 -7.2767299413681030e-01</leafValues></_></weakClassifiers></_>
    <!-- stage 13 -->
    <_>
      <maxWeakCount>2</maxWeakCount>
      <stageThreshold>9.2318855226039886e-02</stageThreshold>
      <weakClassifiers>
        <_>
          <internalNodes>
            0 -1 17 -1.6888534650206566e-02</internalNodes>
          <leafValues>
            9.3877553939819336e-01 -6.2962961196899414e-01</leafValues></_>
        <_>
          <internalNodes>
            0 -1 24 7.5607746839523315e-02</internalNodes>
          <leafValues>
            -8.4645664691925049e-01 8.7815928459167480e-01</leafValues></_></weakClassifiers></_>
    <!-- stage 14 -->
    <_>
      <maxWeakCount>2</maxWeakCount>
      <stageThreshold>2.0000702142715454e-01</stageThreshold>
      <weakClassifiers>
        <_>
          <internalNodes>
            0 -1 26 7.4118822813034058e-03</internalNodes>
          <leafValues>
            -6.2711864709854126e-01 9.7905761003494263e-01</leafValues></_>
        <_>
          <internalNodes>
            0 -1 39 1.0616329498589039e-02</internalNodes>
          <leafValues>
            -7.7905058860778809e-01 9.1867792606353760e-01</leafValues></_></weakClassifiers></_>
    <!-- stage 15 -->
    <_>
      <maxWeakCount>1</maxWeakCount>
      <stageThreshold>9.7044336795806885e-01</stageThreshold>
      <weakClassifiers>
        <_>
          <internalNodes>
            0 -1 8 -4.5130882412195206e-02</internalNodes>
          <leafValues>
            -1. 9.7044336795806885e-01</leafValues></_></weakClassifiers></_>
    <!-- stage 16 -->
    <_>
      <maxWeakCount>3</maxWeakCount>
      <stageThreshold>-3.3928361535072327e-01</stageThreshold>
      <weakClassifiers>
        <_>
          <internalNodes>
            0 -1 13 1.6363233327865601e-02</internalNodes>
          <leafValues>
            -5.5172413587570190e-01 9.4791668653488159e-01</leafValues></_>
        <_>
          <internalNodes>
            0 -1 3 5.2310939878225327e-02</internalNodes>
          <leafValues>
            -5.2574139833450317e-01 8.9647573232650757e-01</leafValues></_>
        <_>
          <internalNodes>
            0 -1 46 -2.6044021360576153e-03</internalNodes>
          <leafValues>
            7.3818194866180420e-01 -7.4383664131164551e-01</leafValues></_></weakClassifiers></_>
    <!-- stage 17 -->
    <_>
      <maxWeakCount>2</maxWeakCount>
      <stageThreshold>8.2797363400459290e-02</stageThreshold>
      <weakClassifiers>
        <_>
          <internalNodes>
            0 -1 1 6.2900081276893616e-02</internalNodes>
          <leafValues>
            -6.2068963050842285e-01 9.6875000000000000e-01</leafValues></_>
        <_>
          <internalNodes>
            0 -1 10 3.1068449839949608e-02</internalNodes>
          <leafValues>
            -8.8595265150070190e-01 8.3667659759521484e-01</leafValues></_></weakClassifiers></_>
    <!-- stage 18 -->
    <_>
      <maxWeakCount>3</maxWeakCount>
      <stageThreshold>-1.9209322333335876e-01</stageThreshold>
      <weakClassifiers>
        <_>
          <internalNodes>
            0 -1 30 2.2511293645948172e-03</internalNodes>
          <leafValues>
            -5.0819671154022217e-01 9.5767194032669067e-01</leafValues></_>
        <_>
          <internalNodes>
            0 -1 4 1.2845503166317940e-02</internalNodes>
          <leafValues>
            -4.6850362420082092e-01 9.4366186857223511e-01</leafValues></_>
        <_>
          <internalNodes>
            0 -1 45 -1.2831091880798340e-01</internalNodes>
          <leafValues>
            8.5106354951858521e-01 -6.2755835056304932e-01</leafValues></_></weakClassifiers></_>
    <!-- stage 19 -->
    <_>
      <maxWeakCount>2</maxWeakCount>
      <stageThreshold>7.1270570158958435e-02</stageThreshold>
      <weakClassifiers>
        <_>
          <internalNodes>
            0 -1 20 -1.7233889549970627e-02</internalNodes>
          <leafValues>
            9.4652408361434937e-01 -4.2857143282890320e-01</leafValues></_>
        <_>
          <internalNodes>
            0 -1 53 -9.5622800290584564e-04</internalNodes>
          <leafValues>
            -8.7525349855422974e-01 7.6170808076858521e-01</leafValues></_></weakClassifiers></_>
    <!-- stage 20 -->
    <_>
      <maxWeakCount>1</maxWeakCount>
      <stageThreshold>8.2648402452468872e-01</stageThreshold>
      <weakClassifiers>
        <_>
          <internalNodes>
            0 -1 54 3.8524254341609776e-04</internalNodes>
          <leafValues>
            8.2648402452468872e-01 -1.</leafValues></_></weakClassifiers></_>
    <!-- stage 21 -->
    <_>
      <maxWeakCount>2</maxWeakCount>
      <stageThreshold>3.8182048592716455e-03</stageThreshold>
      <weakClassifiers>
        <_>
          <internalNodes>
            0 -1 18 3.8294553756713867e-02</internalNodes>
          <leafValues>
            -7.7358490228652954e-01 9.6954315900802612e-01</leafValues></_>
        <_>
          <internalNodes>
            0 -1 49 1.2029599165543914e-03</internalNodes>
          <leafValues>
            8.3320569992065430e-01 -9.6572494506835938e-01</leafValues></_></weakClassifiers></_>
    <!-- stage 22 -->
    <_>
      <maxWeakCount>2</maxWeakCount>
      <stageThreshold>1.3758476125076413e-03</stageThreshold>
      <weakClassifiers>
        <_>
          <internalNodes>
            0 -1 28 2.8678285889327526e-03</internalNodes>
          <leafValues>
            -6.8627452850341797e-01 9.2964822053909302e-01</leafValues></_>
        <_>
          <internalNodes>
            0 -1 34 -1.0493934154510498e-02</internalNodes>
          <leafValues>
            8.4594458341598511e-01 -9.2827236652374268e-01</leafValues></_></weakClassifiers></_>
    <!-- stage 23 -->
    <_>
      <maxWeakCount>3</maxWeakCount>
      <stageThreshold>-5.3961044549942017e-01</stageThreshold>
      <weakClassifiers>
        <_>
          <internalNodes>
            0 -1 43 -7.6104847721580882e-06</internalNodes>
          <leafValues>
            9.1919189691543579e-01 -6.1538463830947876e-01</leafValues></_>
        <_>
          <internalNodes>
            0 -1 48 -8.7526455521583557e-02</internalNodes>
          <leafValues>
            8.5416907072067261e-01 -6.5709435939788818e-01</leafValues></_>
        <_>
          <internalNodes>
            0 -1 51 2.9905922710895538e-03</internalNodes>
          <leafValues>
            8.1638693809509277e-01 -7.7839487791061401e-01</leafValues></_></weakClassifiers></_>
    <!-- stage 24 -->
    <_>
      <maxWeakCount>2</maxWeakCount>
      <stageThreshold>1.0470504313707352e-01</stageThreshold>
      <weakClassifiers>
        <_>
          <internalNodes>
            0 -1 32 1.9478449597954750e-02</internalNodes>
          <leafValues>
            -6.2711864709854126e-01 9.7905761003494263e-01</leafValues></_>
        <_>
          <internalNodes>
            0 -1 23 -2.0612170919775963e-03</internalNodes>
          <leafValues>
            -8.7435257434844971e-01 8.2671940326690674e-01</leafValues></_></weakClassifiers></_></stages>
  <features>
    <_>
      <rects>
        <_>
          0 0 30 14 -1.</_>
        <_>
          0 7 30 7 2.</_></rects>
      <tilted>0</tilted></_>
    <_>
      <rects>
        <_>
          0 1 10 29 -1.</_>
        <_>
          5 1 5 29 2.</_></rects>
      <tilted>0</tilted></_>
    <_>
      <rects>
        <_>
          0 4 12 24 -1.</_>
        <_>
          6 4 6 24 2.</_></rects>
      <tilted>0</tilted></_>
    <_>
      <rects>
        <_>
          0 12 10 13 -1.</_>
        <_>
          5 12 5 13 2.</_></rects>
      <tilted>0</tilted></_>
    <_>
      <rects>
        <_>
          0 23 12 3 -1.</_>
        <_>
          6 23 6 3 2.</_></rects>
      <tilted>0</tilted></_>
    <_>
      <rects>
        <_>
          2 1 27 9 -1.</_>
        <_>
          11 1 9 9 3.</_></rects>
      <tilted>0</tilted></_>
    <_>
      <rects>
        <_>
          2 1 30 15 -1.</_>
        <_>
          12 1 10 15 3.</_></rects>
      <tilted>0</tilted></_>
    <_>
      <rects>
        <_>
          2 4 27 7 -1.</_>
        <_>
          11 4 9 7 3.</_></rects>
      <tilted>0</tilted></_>
    <_>
      <rects>
        <_>
          2 8 22 16 -1.</_>
        <_>
          2 16 22 8 2.</_></rects>
      <tilted>0</tilted></_>
    <_>
      <rects>
        <_>
          2 20 18 12 -1.</_>
        <_>
          2 20 9 6 2.</_>
        <_>
          11 26 9 6 2.</_></rects>
      <tilted>0</tilted></_>
    <_>
      <rects>
        <_>
          2 22 30 2 -1.</_>
        <_>
          12 22 10 2 3.</_></rects>
      <tilted>0</tilted></_>
    <_>
      <rects>
        <_>
          3 1 27 14 -1.</_>
        <_>
          3 8 27 7 2.</_></rects>
      <tilted>0</tilted></_>
    <_>
      <rects>
        <_>
          5 1 27 24 -1.</_>
        <_>
          14 1 9 24 3.</_></rects>
      <tilted>0</tilted></_>
    <_>
      <rects>
        <_>
          5 5 14 2 -1.</_>
        <_>
          12 5 7 2 2.</_></rects>
      <tilted>0</tilted></_>
    <_>
      <rects>
        <_>
          6 1 24 6 -1.</_>
        <_>
          6 4 24 3 2.</_></rects>
      <tilted>0</tilted></_>
    <_>
      <rects>
        <_>
          6 5 24 6 -1.</_>
        <_>
          14 5 8 6 3.</_></rects>
      <tilted>0</tilted></_>
    <_>
      <rects>
        <_>
          6 18 26 4 -1.</_>
        <_>
          19 18 13 4 2.</_></rects>
      <tilted>0</tilted></_>
    <_>
      <rects>
        <_>
          10 0 6 28 -1.</_>
        <_>
          10 0 3 14 2.</_>
        <_>
          13 14 3 14 2.</_></rects>
      <tilted>0</tilted></_>
    <_>
      <rects>
        <_>
          10 2 12 7 -1.</_>
        <_>
          14 2 4 7 3.</_></rects>
      <tilted>0</tilted></_>
    <_>
      <rects>
        <_>
          11 2 9 7 -1.</_>
        <_>
          14 2 3 7 3.</_></rects>
      <tilted>0</tilted></_>
    <_>
      <rects>
        <_>
          11 8 20 1 -1.</_>
        <_>
          21 8 10 1 2.</_></rects>
      <tilted>0</tilted></_>
    <_>
      <rects>
        <_>
          12 3 9 3 -1.</_>
        <_>
          15 3 3 3 3.</_></rects>
      <tilted>0</tilted></_>
    <_>
      <rects>
        <_>
          12 14 9 18 -1.</_>
        <_>
          12 20 9 6 3.</_></rects>
      <tilted>0</tilted></_>
    <_>
      <rects>
        <_>
          13 10 16 6 -1.</_>
        <_>
          13 12 16 2 3.</_></rects>
      <tilted>0</tilted></_>
    <_>
      <rects>
        <_>
          13 17 18 11 -1.</_>
        <_>
          19 17 6 11 3.</_></rects>
      <tilted>0</tilted></_>
    <_>
      <rects>
        <_>
          14 4 6 2 -1.</_>
        <_>
          16 4 2 2 3.</_></rects>
      <tilted>0</tilted></_>
    <_>
      <rects>
        <_>
          14 20 15 1 -1.</_>
        <_>
          19 20 5 1 3.</_></rects>
      <tilted>0</tilted></_>
    <_>
      <rects>
        <_>
          15 3 6 12 -1.</_>
        <_>
          15 3 3 6 2.</_>
        <_>
          18 9 3 6 2.</_></rects>
      <tilted>0</tilted></_>
    <_>
      <rects>
        <_>
          15 5 6 4 -1.</_>
        <_>
          17 5 2 4 3.</_></rects>
      <tilted>0</tilted></_>
    <_>
      <rects>
        <_>
          15 11 15 15 -1.</_>
        <_>
          20 11 5 15 3.</_></rects>
      <tilted>0</tilted></_>
    <_>
      <rects>
        <_>
          16 1 3 9 -1.</_>
        <_>
          16 4 3 3 3.</_></rects>
      <tilted>0</tilted></_>
    <_>
      <rects>
        <_>
          16 1 9 7 -1.</_>
        <_>
          19 1 3 7 3.</_></rects>
      <tilted>0</tilted></_>
    <_>
      <rects>
        <_>
          16 7 11 6 -1.</_>
        <_>
          16 10 11 3 2.</_></rects>
      <tilted>0</tilted></_>
    <_>
      <rects>
        <_>
          16 11 15 21 -1.</_>
        <_>
          21 11 5 21 3.</_></rects>
      <tilted>0</tilted></_>
    <_>
      <rects>
        <_>
          17 16 13 16 -1.</_>
        <_>
          17 24 13 8 2.</_></rects>
      <tilted>0</tilted></_>
    <_>
      <rects>
        <_>
          18 3 8 6 -1.</_>
        <_>
          18 3 4 3 2.</_>
        <_>
          22 6 4 3 2.</_></rects>
      <tilted>0</tilted></_>
    <_>
      <rects>
        <_>
          18 5 4 4 -1.</_>
        <_>
          20 5 2 4 2.</_></rects>
      <tilted>0</tilted></_>
    <_>
      <rects>
        <_>
          18 11 12 10 -1.</_>
        <_>
          22 11 4 10 3.</_></rects>
      <tilted>0</tilted></_>
    <_>
      <rects>
        <_>
          18 20 12 1 -1.</_>
        <_>
          24 20 6 1 2.</_></rects>
      <tilted>0</tilted></_>
    <_>
      <rects>
        <_>
          19 0 1 14 -1.</_>
        <_>
          19 7 1 7 2.</_></rects>
      <tilted>0</tilted></_>
    <_>
      <rects>
        <_>
          19 22 12 2 -1.</_>
        <_>
          25 22 6 2 2.</_></rects>
      <tilted>0</tilted></_>
    <_>
      <rects>
        <_>
          20 3 9 21 -1.</_>
        <_>
          20 10 9 7 3.</_></rects>
      <tilted>0</tilted></_>
    <_>
      <rects>
        <_>
          20 5 2 6 -1.</_>
        <_>
          20 8 2 3 2.</_></rects>
      <tilted>0</tilted></_>
    <_>
      <rects>
        <_>
          20 6 2 2 -1.</_>
        <_>
          20 6 1 1 2.</_>
        <_>
          21 7 1 1 2.</_></rects>
      <tilted>0</tilted></_>
    <_>
      <rects>
        <_>
          22 10 10 16 -1.</_>
        <_>
          27 10 5 16 2.</_></rects>
      <tilted>0</tilted></_>
    <_>
      <rects>
        <_>
          22 10 10 19 -1.</_>
        <_>
          27 10 5 19 2.</_></rects>
      <tilted>0</tilted></_>
    <_>
      <rects>
        <_>
          22 12 10 4 -1.</_>
        <_>
          22 14 10 2 2.</_></rects>
      <tilted>0</tilted></_>
    <_>
      <rects>
        <_>
          23 6 2 8 -1.</_>
        <_>
          23 10 2 4 2.</_></rects>
      <tilted>0</tilted></_>
    <_>
      <rects>
        <_>
          23 6 8 23 -1.</_>
        <_>
          27 6 4 23 2.</_></rects>
      <tilted>0</tilted></_>
    <_>
      <rects>
        <_>
          23 24 6 2 -1.</_>
        <_>
          23 25 6 1 2.</_></rects>
      <tilted>0</tilted></_>
    <_>
      <rects>
        <_>
          24 4 5 18 -1.</_>
        <_>
          24 10 5 6 3.</_></rects>
      <tilted>0</tilted></_>
    <_>
      <rects>
        <_>
          24 20 8 8 -1.</_>
        <_>
          24 20 4 4 2.</_>
        <_>
          28 24 4 4 2.</_></rects>
      <tilted>0</tilted></_>
    <_>
      <rects>
        <_>
          28 4 4 26 -1.</_>
        <_>
          28 4 2 13 2.</_>
        <_>
          30 17 2 13 2.</_></rects>
      <tilted>0</tilted></_>
    <_>
      <rects>
        <_>
          28 19 4 3 -1.</_>
        <_>
          30 19 2 3 2.</_></rects>
      <tilted>0</tilted></_>
    <_>
      <rects>
        <_>
          30 5 2 18 -1.</_>
        <_>
          31 5 1 18 2.</_></rects>
      <tilted>0</tilted></_></features></cascade>
</opencv_storage>
